<?xml version="1.0"?>
<opencv_storage>
<cascade>
  <stageType>BOOST</stageType>
  <featureType>HAAR</featureType>
  <height>40</height>
  <width>80</width>
  <stageParams>
    <boostType>GAB</boostType>
    <minHitRate>9.9900001287460327e-01</minHitRate>
    <maxFalseAlarm>5.0000000000000000e-01</maxFalseAlarm>
    <weightTrimRate>9.4999999999999996e-01</weightTrimRate>
    <maxDepth>1</maxDepth>
    <maxWeakCount>100</maxWeakCount></stageParams>
  <featureParams>
    <maxCatCount>0</maxCatCount>
    <featSize>1</featSize>
    <mode>ALL</mode></featureParams>
  <stageNum>10</stageNum>
  <stages>
    <!-- stage 0 -->
    <_>
      <maxWeakCount>3</maxWeakCount>
      <stageThreshold>-1.3090451955795288e+00</stageThreshold>
      <weakClassifiers>
        <_>
          <internalNodes>
            0 -1 11 -5.4950183257460594e-03</internalNodes>
          <leafValues>
            9.0754258632659912e-01 -9.9357169866561890e-01</leafValues></_>
        <_>
          <internalNodes>
            0 -1 19 2.9342673718929291e-02</internalNodes>
          <leafValues>
            -9.8549681901931763e-01 8.3158153295516968e-01</leafValues></_>
        <_>
          <internalNodes>
            0 -1 32 -3.1003698706626892e-02</internalNodes>
          <leafValues>
            6.7002338171005249e-01 -9.8593264818191528e-01</leafValues></_></weakClassifiers></_>
    <!-- stage 1 -->
    <_>
      <maxWeakCount>4</maxWeakCount>
      <stageThreshold>-2.1119761466979980e+00</stageThreshold>
      <weakClassifiers>
        <_>
          <internalNodes>
            0 -1 6 1.6090650111436844e-02</internalNodes>
          <leafValues>
            -9.6668720245361328e-01 5.3468519449234009e-01</leafValues></_>
        <_>
          <internalNodes>
            0 -1 18 -1.9805759191513062e-02</internalNodes>
          <leafValues>
            5.1868379116058350e-01 -9.6831816434860229e-01</leafValues></_>
        <_>
          <internalNodes>
            0 -1 13 6.6122366115450859e-04</internalNodes>
          <leafValues>
            -7.3609471321105957e-01 9.0525799989700317e-01</leafValues></_>
        <_>
          <internalNodes>
            0 -1 16 1.4012492261826992e-02</internalNodes>
          <leafValues>
            -9.2787796258926392e-01 6.1285912990570068e-01</leafValues></_></weakClassifiers></_>
    <!-- stage 2 -->
    <_>
      <maxWeakCount>4</maxWeakCount>
      <stageThreshold>-1.9498286247253418e+00</stageThreshold>
      <weakClassifiers>
        <_>
          <internalNodes>
            0 -1 14 -6.3511123880743980e-04</internalNodes>
          <leafValues>
            7.1293377876281738e-01 -9.0050327777862549e-01</leafValues></_>
        <_>
          <internalNodes>
            0 -1 22 -2.8004853520542383e-03</internalNodes>
          <leafValues>
            7.5446200370788574e-01 -8.2366949319839478e-01</leafValues></_>
        <_>
          <internalNodes>
            0 -1 4 1.3130469247698784e-02</internalNodes>
          <leafValues>
            -9.2362308502197266e-01 5.5434745550155640e-01</leafValues></_>
        <_>
          <internalNodes>
            0 -1 36 1.5558057464659214e-02</internalNodes>
          <leafValues>
            -7.8000319004058838e-01 7.5241458415985107e-01</leafValues></_></weakClassifiers></_>
    <!-- stage 3 -->
    <_>
      <maxWeakCount>5</maxWeakCount>
      <stageThreshold>-1.8699034452438354e+00</stageThreshold>
      <weakClassifiers>
        <_>
          <internalNodes>
            0 -1 15 -6.6501682158559561e-04</internalNodes>
          <leafValues>
            6.3836479187011719e-01 -8.9194422960281372e-01</leafValues></_>
        <_>
          <internalNodes>
            0 -1 9 -2.6531979441642761e-02</internalNodes>
          <leafValues>
            3.4922546148300171e-01 -8.7009376287460327e-01</leafValues></_>
        <_>
          <internalNodes>
            0 -1 29 -8.8643748313188553e-03</internalNodes>
          <leafValues>
            3.9675864577293396e-01 -9.6721613407135010e-01</leafValues></_>
        <_>
          <internalNodes>
            0 -1 26 -2.1890418604016304e-02</internalNodes>
          <leafValues>
            4.4835248589515686e-01 -8.9423084259033203e-01</leafValues></_>
        <_>
          <internalNodes>
            0 -1 24 4.1037014852918219e-06</internalNodes>
          <leafValues>
            4.1099819540977478e-01 -9.9635493755340576e-01</leafValues></_></weakClassifiers></_>
    <!-- stage 4 -->
    <_>
      <maxWeakCount>3</maxWeakCount>
      <stageThreshold>-1.5078285932540894e+00</stageThreshold>
      <weakClassifiers>
        <_>
          <internalNodes>
            0 -1 39 7.3412889614701271e-03</internalNodes>
          <leafValues>
            -8.8165223598480225e-01 6.5378153324127197e-01</leafValues></_>
        <_>
          <internalNodes>
            0 -1 12 -1.8387829884886742e-02</internalNodes>
          <leafValues>
            5.2117395401000977e-01 -9.5678853988647461e-01</leafValues></_>
        <_>
          <internalNodes>
            0 -1 24 -6.0025804486940615e-06</internalNodes>
          <leafValues>
            -1. 3.3061221241950989e-01</leafValues></_></weakClassifiers></_>
    <!-- stage 5 -->
    <_>
      <maxWeakCount>4</maxWeakCount>
      <stageThreshold>-2.0866532325744629e+00</stageThreshold>
      <weakClassifiers>
        <_>
          <internalNodes>
            0 -1 38 -3.1862659379839897e-03</internalNodes>
          <leafValues>
            7.2277230024337769e-01 -8.6213409900665283e-01</leafValues></_>
        <_>
          <internalNodes>
            0 -1 21 1.7004325985908508e-02</internalNodes>
          <leafValues>
            -9.5977544784545898e-01 3.6240938305854797e-01</leafValues></_>
        <_>
          <internalNodes>
            0 -1 0 6.5445005893707275e-03</internalNodes>
          <leafValues>
            -7.1340155601501465e-01 6.9153541326522827e-01</leafValues></_>
        <_>
          <internalNodes>
            0 -1 37 -1.6695925965905190e-02</internalNodes>
          <leafValues>
            4.4865790009498596e-01 -9.8363113403320312e-01</leafValues></_></weakClassifiers></_>
    <!-- stage 6 -->
    <_>
      <maxWeakCount>3</maxWeakCount>
      <stageThreshold>-1.6338698863983154e+00</stageThreshold>
      <weakClassifiers>
        <_>
          <internalNodes>
            0 -1 5 2.2504210472106934e-02</internalNodes>
          <leafValues>
            -9.3955701589584351e-01 3.4984520077705383e-01</leafValues></_>
        <_>
          <internalNodes>
            0 -1 25 -1.1729719517461490e-05</internalNodes>
          <leafValues>
            -9.6987766027450562e-01 2.4426963925361633e-01</leafValues></_>
        <_>
          <internalNodes>
            0 -1 20 1.8301375210285187e-02</internalNodes>
          <leafValues>
            -9.3858247995376587e-01 3.3179891109466553e-01</leafValues></_></weakClassifiers></_>
    <!-- stage 7 -->
    <_>
      <maxWeakCount>7</maxWeakCount>
      <stageThreshold>-2.2489061355590820e+00</stageThreshold>
      <weakClassifiers>
        <_>
          <internalNodes>
            0 -1 41 1.1970201507210732e-02</internalNodes>
          <leafValues>
            -8.5009413957595825e-01 6.4081633090972900e-01</leafValues></_>
        <_>
          <internalNodes>
            0 -1 7 1.3976600021123886e-03</internalNodes>
          <leafValues>
            -7.8954815864562988e-01 5.1366800069808960e-01</leafValues></_>
        <_>
          <internalNodes>
            0 -1 2 1.9937343895435333e-02</internalNodes>
          <leafValues>
            -6.4262312650680542e-01 6.4399206638336182e-01</leafValues></_>
        <_>
          <internalNodes>
            0 -1 30 -2.9248910777823767e-06</internalNodes>
          <leafValues>
            -9.4262957572937012e-01 4.3069514632225037e-01</leafValues></_>
        <_>
          <internalNodes>
            0 -1 10 -3.4449167549610138e-02</internalNodes>
          <leafValues>
            3.5458528995513916e-01 -9.0442198514938354e-01</leafValues></_>
        <_>
          <internalNodes>
            0 -1 35 -5.7058318816416431e-06</internalNodes>
          <leafValues>
            -9.8341947793960571e-01 2.9314100742340088e-01</leafValues></_>
        <_>
          <internalNodes>
            0 -1 8 2.6973340660333633e-02</internalNodes>
          <leafValues>
            -9.9002951383590698e-01 3.2826271653175354e-01</leafValues></_></weakClassifiers></_>
    <!-- stage 8 -->
    <_>
      <maxWeakCount>6</maxWeakCount>
      <stageThreshold>-2.4168694019317627e+00</stageThreshold>
      <weakClassifiers>
        <_>
          <internalNodes>
            0 -1 3 -1.0264340788125992e-02</internalNodes>
          <leafValues>
            6.3673466444015503e-01 -8.4971749782562256e-01</leafValues></_>
        <_>
          <internalNodes>
            0 -1 40 1.9868009258061647e-03</internalNodes>
          <leafValues>
            -6.9511216878890991e-01 6.3464939594268799e-01</leafValues></_>
        <_>
          <internalNodes>
            0 -1 31 8.7217744439840317e-03</internalNodes>
          <leafValues>
            -9.5964580774307251e-01 3.2697772979736328e-01</leafValues></_>
        <_>
          <internalNodes>
            0 -1 23 -3.6045880733581726e-06</internalNodes>
          <leafValues>
            -7.7782970666885376e-01 4.5896309614181519e-01</leafValues></_>
        <_>
          <internalNodes>
            0 -1 17 -2.7510314248502254e-03</internalNodes>
          <leafValues>
            4.4551271200180054e-01 -7.7643382549285889e-01</leafValues></_>
        <_>
          <internalNodes>
            0 -1 1 -1.1077434755861759e-03</internalNodes>
          <leafValues>
            3.5524597764015198e-01 -9.0374004840850830e-01</leafValues></_></weakClassifiers></_>
    <!-- stage 9 -->
    <_>
      <maxWeakCount>5</maxWeakCount>
      <stageThreshold>-1.6406008005142212e+00</stageThreshold>
      <weakClassifiers>
        <_>
          <internalNodes>
            0 -1 34 -6.8274600198492408e-04</internalNodes>
          <leafValues>
            6.7505723237991333e-01 -8.3815026283264160e-01</leafValues></_>
        <_>
          <internalNodes>
            0 -1 33 -6.9878436625003815e-04</internalNodes>
          <leafValues>
            8.0091255903244019e-01 -6.0204505920410156e-01</leafValues></_>
        <_>
          <internalNodes>
            0 -1 28 -4.0386812543147244e-06</internalNodes>
          <leafValues>
            -8.5280376672744751e-01 4.4219607114791870e-01</leafValues></_>
        <_>
          <internalNodes>
            0 -1 27 -4.5556480472441763e-06</internalNodes>
          <leafValues>
            -1. 2.9073694348335266e-01</leafValues></_>
        <_>
          <internalNodes>
            0 -1 27 5.2072964535909705e-06</internalNodes>
          <leafValues>
            3.6166131496429443e-01 -1.</leafValues></_></weakClassifiers></_></stages>
  <features>
    <_>
      <rects>
        <_>
          16 10 8 20 -1.</_>
        <_>
          18 10 4 20 2.</_></rects>
      <tilted>0</tilted></_>
    <_>
      <rects>
        <_>
          16 21 20 1 -1.</_>
        <_>
          21 21 10 1 2.</_></rects>
      <tilted>0</tilted></_>
    <_>
      <rects>
        <_>
          21 7 22 8 -1.</_>
        <_>
          21 7 11 4 2.</_>
        <_>
          32 11 11 4 2.</_></rects>
      <tilted>0</tilted></_>
    <_>
      <rects>
        <_>
          23 24 12 4 -1.</_>
        <_>
          23 24 12 2 2.</_></rects>
      <tilted>1</tilted></_>
    <_>
      <rects>
        <_>
          25 16 18 3 -1.</_>
        <_>
          31 16 6 3 3.</_></rects>
      <tilted>0</tilted></_>
    <_>
      <rects>
        <_>
          26 2 8 22 -1.</_>
        <_>
          26 2 4 11 2.</_>
        <_>
          30 13 4 11 2.</_></rects>
      <tilted>0</tilted></_>
    <_>
      <rects>
        <_>
          27 17 12 6 -1.</_>
        <_>
          30 17 6 6 2.</_></rects>
      <tilted>0</tilted></_>
    <_>
      <rects>
        <_>
          29 22 6 2 -1.</_>
        <_>
          31 22 2 2 3.</_></rects>
      <tilted>0</tilted></_>
    <_>
      <rects>
        <_>
          30 8 18 6 -1.</_>
        <_>
          36 14 6 6 3.</_></rects>
      <tilted>1</tilted></_>
    <_>
      <rects>
        <_>
          32 15 15 6 -1.</_>
        <_>
          37 17 5 2 9.</_></rects>
      <tilted>0</tilted></_>
    <_>
      <rects>
        <_>
          33 14 12 12 -1.</_>
        <_>
          37 18 4 4 9.</_></rects>
      <tilted>0</tilted></_>
    <_>
      <rects>
        <_>
          33 17 6 5 -1.</_>
        <_>
          36 17 3 5 2.</_></rects>
      <tilted>0</tilted></_>
    <_>
      <rects>
        <_>
          33 17 15 9 -1.</_>
        <_>
          38 17 5 9 3.</_></rects>
      <tilted>0</tilted></_>
    <_>
      <rects>
        <_>
          33 19 3 1 -1.</_>
        <_>
          34 19 1 1 3.</_></rects>
      <tilted>0</tilted></_>
    <_>
      <rects>
        <_>
          34 19 3 1 -1.</_>
        <_>
          35 19 1 1 3.</_></rects>
      <tilted>0</tilted></_>
    <_>
      <rects>
        <_>
          34 20 3 1 -1.</_>
        <_>
          35 20 1 1 3.</_></rects>
      <tilted>0</tilted></_>
    <_>
      <rects>
        <_>
          35 9 12 12 -1.</_>
        <_>
          35 12 12 6 2.</_></rects>
      <tilted>0</tilted></_>
    <_>
      <rects>
        <_>
          35 19 12 8 -1.</_>
        <_>
          35 19 6 4 2.</_>
        <_>
          41 23 6 4 2.</_></rects>
      <tilted>0</tilted></_>
    <_>
      <rects>
        <_>
          36 6 6 10 -1.</_>
        <_>
          36 6 3 10 2.</_></rects>
      <tilted>1</tilted></_>
    <_>
      <rects>
        <_>
          37 7 9 10 -1.</_>
        <_>
          40 10 3 10 3.</_></rects>
      <tilted>1</tilted></_>
    <_>
      <rects>
        <_>
          37 8 8 9 -1.</_>
        <_>
          39 10 4 9 2.</_></rects>
      <tilted>1</tilted></_>
    <_>
      <rects>
        <_>
          38 12 8 6 -1.</_>
        <_>
          38 12 4 6 2.</_></rects>
      <tilted>1</tilted></_>
    <_>
      <rects>
        <_>
          38 14 4 6 -1.</_>
        <_>
          38 16 4 2 3.</_></rects>
      <tilted>0</tilted></_>
    <_>
      <rects>
        <_>
          38 17 3 1 -1.</_>
        <_>
          39 18 1 1 3.</_></rects>
      <tilted>1</tilted></_>
    <_>
      <rects>
        <_>
          39 18 2 2 -1.</_>
        <_>
          39 18 1 2 2.</_></rects>
      <tilted>1</tilted></_>
    <_>
      <rects>
        <_>
          39 21 6 2 -1.</_>
        <_>
          39 21 6 1 2.</_></rects>
      <tilted>1</tilted></_>
    <_>
      <rects>
        <_>
          40 3 6 17 -1.</_>
        <_>
          40 3 3 17 2.</_></rects>
      <tilted>1</tilted></_>
    <_>
      <rects>
        <_>
          40 19 6 2 -1.</_>
        <_>
          42 21 2 2 3.</_></rects>
      <tilted>1</tilted></_>
    <_>
      <rects>
        <_>
          41 17 1 4 -1.</_>
        <_>
          40 18 1 2 2.</_></rects>
      <tilted>1</tilted></_>
    <_>
      <rects>
        <_>
          42 14 5 14 -1.</_>
        <_>
          42 21 5 7 2.</_></rects>
      <tilted>0</tilted></_>
    <_>
      <rects>
        <_>
          42 18 1 4 -1.</_>
        <_>
          41 19 1 2 2.</_></rects>
      <tilted>1</tilted></_>
    <_>
      <rects>
        <_>
          43 12 4 8 -1.</_>
        <_>
          43 12 4 4 2.</_></rects>
      <tilted>1</tilted></_>
    <_>
      <rects>
        <_>
          43 12 11 12 -1.</_>
        <_>
          39 16 11 4 3.</_></rects>
      <tilted>1</tilted></_>
    <_>
      <rects>
        <_>
          44 17 1 3 -1.</_>
        <_>
          44 18 1 1 3.</_></rects>
      <tilted>0</tilted></_>
    <_>
      <rects>
        <_>
          44 18 1 3 -1.</_>
        <_>
          44 19 1 1 3.</_></rects>
      <tilted>0</tilted></_>
    <_>
      <rects>
        <_>
          44 22 3 3 -1.</_>
        <_>
          43 23 3 1 3.</_></rects>
      <tilted>1</tilted></_>
    <_>
      <rects>
        <_>
          46 12 12 22 -1.</_>
        <_>
          46 12 6 11 2.</_>
        <_>
          52 23 6 11 2.</_></rects>
      <tilted>0</tilted></_>
    <_>
      <rects>
        <_>
          46 13 6 12 -1.</_>
        <_>
          42 17 6 4 3.</_></rects>
      <tilted>1</tilted></_>
    <_>
      <rects>
        <_>
          49 1 12 3 -1.</_>
        <_>
          48 2 12 1 3.</_></rects>
      <tilted>1</tilted></_>
    <_>
      <rects>
        <_>
          57 11 6 17 -1.</_>
        <_>
          59 11 2 17 3.</_></rects>
      <tilted>0</tilted></_>
    <_>
      <rects>
        <_>
          58 12 4 15 -1.</_>
        <_>
          59 12 2 15 2.</_></rects>
      <tilted>0</tilted></_>
    <_>
      <rects>
        <_>
          58 25 6 9 -1.</_>
        <_>
          60 27 2 9 3.</_></rects>
      <tilted>1</tilted></_></features></cascade>
</opencv_storage>
