<?xml version="1.0"?>
<opencv_storage>
<stage3>
  <maxWeakCount>5</maxWeakCount>
  <stageThreshold>-2.6031286716461182e+00</stageThreshold>
  <weakClassifiers>
    <_>
      <internalNodes>
        0 -1 7056014 -1.1975482106208801e-02</internalNodes>
      <leafValues>
        7.4394464492797852e-01 -8.8663345575332642e-01</leafValues></_>
    <_>
      <internalNodes>
        0 -1 4693509 2.9834322631359100e-03</internalNodes>
      <leafValues>
        -8.5479128360748291e-01 5.5737018585205078e-01</leafValues></_>
    <_>
      <internalNodes>
        0 -1 5041622 -1.4315703883767128e-03</internalNodes>
      <leafValues>
        4.1455230116844177e-01 -8.7868386507034302e-01</leafValues></_>
    <_>
      <internalNodes>
        0 -1 4608545 1.1784380301833153e-02</internalNodes>
      <leafValues>
        -7.1083301305770874e-01 6.2939447164535522e-01</leafValues></_>
    <_>
      <internalNodes>
        0 -1 5985461 8.3751212805509567e-03</internalNodes>
      <leafValues>
        -6.0250324010848999e-01 7.2781288623809814e-01</leafValues></_></weakClassifiers></stage3>
</opencv_storage>
