<?xml version="1.0"?>
<opencv_storage>
<stage5>
  <maxWeakCount>6</maxWeakCount>
  <stageThreshold>-2.3585455417633057e+00</stageThreshold>
  <weakClassifiers>
    <_>
      <internalNodes>
        0 -1 7059718 -1.0392770171165466e-02</internalNodes>
      <leafValues>
        6.0666668415069580e-01 -8.7769228219985962e-01</leafValues></_>
    <_>
      <internalNodes>
        0 -1 6420401 -4.8392355442047119e-02</internalNodes>
      <leafValues>
        4.9420398473739624e-01 -8.7656390666961670e-01</leafValues></_>
    <_>
      <internalNodes>
        0 -1 2401928 1.1958970688283443e-02</internalNodes>
      <leafValues>
        -6.0779166221618652e-01 7.9839235544204712e-01</leafValues></_>
    <_>
      <internalNodes>
        0 -1 4796581 -5.0294846296310425e-02</internalNodes>
      <leafValues>
        4.8680609464645386e-01 -8.5862201452255249e-01</leafValues></_>
    <_>
      <internalNodes>
        0 -1 3143454 -1.0649858042597771e-02</internalNodes>
      <leafValues>
        4.7189846634864807e-01 -8.1464934349060059e-01</leafValues></_>
    <_>
      <internalNodes>
        0 -1 5670091 -6.2804397202853579e-06</internalNodes>
      <leafValues>
        -9.3281841278076172e-01 3.9022597670555115e-01</leafValues></_></weakClassifiers></stage5>
</opencv_storage>
