<?xml version="1.0"?>
<opencv_storage>
<cascade>
  <stageType>BOOST</stageType>
  <featureType>HAAR</featureType>
  <height>24</height>
  <width>24</width>
  <stageParams>
    <boostType>GAB</boostType>
    <minHitRate>9.9500000476837158e-01</minHitRate>
    <maxFalseAlarm>5.0000000000000000e-01</maxFalseAlarm>
    <weightTrimRate>9.4999999999999996e-01</weightTrimRate>
    <maxDepth>1</maxDepth>
    <maxWeakCount>100</maxWeakCount></stageParams>
  <featureParams>
    <maxCatCount>0</maxCatCount>
    <featSize>1</featSize>
    <mode>BASIC</mode></featureParams>
  <stageNum>25</stageNum>
  <stages>
    <!-- stage 0 -->
    <_>
      <maxWeakCount>3</maxWeakCount>
      <stageThreshold>-1.2821553945541382e+00</stageThreshold>
      <weakClassifiers>
        <_>
          <internalNodes>
            0 -1 32 4.2203933000564575e-02</internalNodes>
          <leafValues>
            -9.2592591047286987e-01 8.2938390970230103e-01</leafValues></_>
        <_>
          <internalNodes>
            0 -1 84 3.9395783096551895e-03</internalNodes>
          <leafValues>
            -9.2614686489105225e-01 7.5976860523223877e-01</leafValues></_>
        <_>
          <internalNodes>
            0 -1 25 9.2731770128011703e-03</internalNodes>
          <leafValues>
            -8.2978606224060059e-01 5.6991744041442871e-01</leafValues></_></weakClassifiers></_>
    <!-- stage 1 -->
    <_>
      <maxWeakCount>3</maxWeakCount>
      <stageThreshold>-9.1292852163314819e-01</stageThreshold>
      <weakClassifiers>
        <_>
          <internalNodes>
            0 -1 59 3.4624300897121429e-02</internalNodes>
          <leafValues>
            -8.6528497934341431e-01 8.0676329135894775e-01</leafValues></_>
        <_>
          <internalNodes>
            0 -1 3 8.2942470908164978e-03</internalNodes>
          <leafValues>
            -7.1840560436248779e-01 7.4061125516891479e-01</leafValues></_>
        <_>
          <internalNodes>
            0 -1 80 6.8227308802306652e-03</internalNodes>
          <leafValues>
            -7.1513491868972778e-01 6.7076200246810913e-01</leafValues></_></weakClassifiers></_>
    <!-- stage 2 -->
    <_>
      <maxWeakCount>4</maxWeakCount>
      <stageThreshold>-1.3602222204208374e+00</stageThreshold>
      <weakClassifiers>
        <_>
          <internalNodes>
            0 -1 52 8.7875137105584145e-03</internalNodes>
          <leafValues>
            -9.2941176891326904e-01 6.8695652484893799e-01</leafValues></_>
        <_>
          <internalNodes>
            0 -1 104 2.5709040462970734e-02</internalNodes>
          <leafValues>
            -6.7668998241424561e-01 7.8444397449493408e-01</leafValues></_>
        <_>
          <internalNodes>
            0 -1 5 -3.6603491753339767e-02</internalNodes>
          <leafValues>
            8.2528609037399292e-01 -5.0126188993453979e-01</leafValues></_>
        <_>
          <internalNodes>
            0 -1 74 2.4843206629157066e-03</internalNodes>
          <leafValues>
            -5.2355664968490601e-01 7.4714148044586182e-01</leafValues></_></weakClassifiers></_>
    <!-- stage 3 -->
    <_>
      <maxWeakCount>4</maxWeakCount>
      <stageThreshold>-7.8054851293563843e-01</stageThreshold>
      <weakClassifiers>
        <_>
          <internalNodes>
            0 -1 21 -2.8129570186138153e-02</internalNodes>
          <leafValues>
            6.9724768400192261e-01 -8.3516484498977661e-01</leafValues></_>
        <_>
          <internalNodes>
            0 -1 66 5.0928708165884018e-02</internalNodes>
          <leafValues>
            -6.5939003229141235e-01 7.2150945663452148e-01</leafValues></_>
        <_>
          <internalNodes>
            0 -1 106 -1.1850341252284124e-05</internalNodes>
          <leafValues>
            -8.9024132490158081e-01 3.7701424956321716e-01</leafValues></_>
        <_>
          <internalNodes>
            0 -1 105 2.3310698452405632e-04</internalNodes>
          <leafValues>
            3.3699211478233337e-01 -9.5495396852493286e-01</leafValues></_></weakClassifiers></_>
    <!-- stage 4 -->
    <_>
      <maxWeakCount>5</maxWeakCount>
      <stageThreshold>-9.2327696084976196e-01</stageThreshold>
      <weakClassifiers>
        <_>
          <internalNodes>
            0 -1 73 2.1399952471256256e-02</internalNodes>
          <leafValues>
            -6.6071426868438721e-01 8.4090906381607056e-01</leafValues></_>
        <_>
          <internalNodes>
            0 -1 27 2.0460242405533791e-02</internalNodes>
          <leafValues>
            -8.1887483596801758e-01 4.7247394919395447e-01</leafValues></_>
        <_>
          <internalNodes>
            0 -1 83 6.1890846118330956e-03</internalNodes>
          <leafValues>
            -9.5562052726745605e-01 3.5523667931556702e-01</leafValues></_>
        <_>
          <internalNodes>
            0 -1 79 1.7179902642965317e-02</internalNodes>
          <leafValues>
            -4.7983455657958984e-01 6.5379184484481812e-01</leafValues></_>
        <_>
          <internalNodes>
            0 -1 26 4.7189459204673767e-02</internalNodes>
          <leafValues>
            -3.9185762405395508e-01 7.0041841268539429e-01</leafValues></_></weakClassifiers></_>
    <!-- stage 5 -->
    <_>
      <maxWeakCount>5</maxWeakCount>
      <stageThreshold>-9.6111798286437988e-01</stageThreshold>
      <weakClassifiers>
        <_>
          <internalNodes>
            0 -1 97 -2.4843972176313400e-02</internalNodes>
          <leafValues>
            6.1904764175415039e-01 -6.8421053886413574e-01</leafValues></_>
        <_>
          <internalNodes>
            0 -1 20 5.8317635208368301e-02</internalNodes>
          <leafValues>
            -6.3657152652740479e-01 5.6693738698959351e-01</leafValues></_>
        <_>
          <internalNodes>
            0 -1 9 7.9744672402739525e-03</internalNodes>
          <leafValues>
            -5.1991093158721924e-01 6.2584221363067627e-01</leafValues></_>
        <_>
          <internalNodes>
            0 -1 110 4.5232063712319359e-05</internalNodes>
          <leafValues>
            -9.2195338010787964e-01 3.7567982077598572e-01</leafValues></_>
        <_>
          <internalNodes>
            0 -1 29 3.1277023255825043e-02</internalNodes>
          <leafValues>
            -5.4773366451263428e-01 5.9172296524047852e-01</leafValues></_></weakClassifiers></_>
    <!-- stage 6 -->
    <_>
      <maxWeakCount>7</maxWeakCount>
      <stageThreshold>-1.2381402254104614e+00</stageThreshold>
      <weakClassifiers>
        <_>
          <internalNodes>
            0 -1 23 1.1220686137676239e-01</internalNodes>
          <leafValues>
            -6.7021274566650391e-01 5.9433960914611816e-01</leafValues></_>
        <_>
          <internalNodes>
            0 -1 98 -7.1605988778173923e-03</internalNodes>
          <leafValues>
            3.2707270979881287e-01 -8.0484765768051147e-01</leafValues></_>
        <_>
          <internalNodes>
            0 -1 101 2.0303265046095476e-05</internalNodes>
          <leafValues>
            3.3429825305938721e-01 -8.4543418884277344e-01</leafValues></_>
        <_>
          <internalNodes>
            0 -1 92 3.4398818388581276e-03</internalNodes>
          <leafValues>
            -3.9554399251937866e-01 8.4385704994201660e-01</leafValues></_>
        <_>
          <internalNodes>
            0 -1 108 1.5546844224445522e-05</internalNodes>
          <leafValues>
            4.0123075246810913e-01 -7.2474128007888794e-01</leafValues></_>
        <_>
          <internalNodes>
            0 -1 13 -6.3524082303047180e-02</internalNodes>
          <leafValues>
            7.4991142749786377e-01 -4.2459926009178162e-01</leafValues></_>
        <_>
          <internalNodes>
            0 -1 101 -2.9899086803197861e-04</internalNodes>
          <leafValues>
            -9.2151236534118652e-01 3.6934655904769897e-01</leafValues></_></weakClassifiers></_>
    <!-- stage 7 -->
    <_>
      <maxWeakCount>4</maxWeakCount>
      <stageThreshold>-7.8579527139663696e-01</stageThreshold>
      <weakClassifiers>
        <_>
          <internalNodes>
            0 -1 55 -1.5763746574521065e-02</internalNodes>
          <leafValues>
            6.9892472028732300e-01 -6.0747665166854858e-01</leafValues></_>
        <_>
          <internalNodes>
            0 -1 120 -5.7112250942736864e-04</internalNodes>
          <leafValues>
            -8.6418688297271729e-01 3.6173248291015625e-01</leafValues></_>
        <_>
          <internalNodes>
            0 -1 31 -5.6043941527605057e-02</internalNodes>
          <leafValues>
            3.9446547627449036e-01 -6.7319381237030029e-01</leafValues></_>
        <_>
          <internalNodes>
            0 -1 115 -3.9194486453197896e-04</internalNodes>
          <leafValues>
            -9.6300292015075684e-01 2.9140275716781616e-01</leafValues></_></weakClassifiers></_>
    <!-- stage 8 -->
    <_>
      <maxWeakCount>4</maxWeakCount>
      <stageThreshold>-1.2957299947738647e+00</stageThreshold>
      <weakClassifiers>
        <_>
          <internalNodes>
            0 -1 76 5.2853114902973175e-02</internalNodes>
          <leafValues>
            -5.4112553596496582e-01 7.3964494466781616e-01</leafValues></_>
        <_>
          <internalNodes>
            0 -1 112 -1.4412360906135291e-04</internalNodes>
          <leafValues>
            -8.0212211608886719e-01 3.6208611726760864e-01</leafValues></_>
        <_>
          <internalNodes>
            0 -1 49 3.2799240201711655e-02</internalNodes>
          <leafValues>
            -3.7182113528251648e-01 8.4269505739212036e-01</leafValues></_>
        <_>
          <internalNodes>
            0 -1 101 2.6307895313948393e-04</internalNodes>
          <leafValues>
            3.3988136053085327e-01 -7.9517740011215210e-01</leafValues></_></weakClassifiers></_>
    <!-- stage 9 -->
    <_>
      <maxWeakCount>4</maxWeakCount>
      <stageThreshold>-4.2134132981300354e-01</stageThreshold>
      <weakClassifiers>
        <_>
          <internalNodes>
            0 -1 93 3.3964118920266628e-03</internalNodes>
          <leafValues>
            -4.4486692547798157e-01 8.5401457548141479e-01</leafValues></_>
        <_>
          <internalNodes>
            0 -1 28 -4.7439254820346832e-02</internalNodes>
          <leafValues>
            5.8706754446029663e-01 -5.4406893253326416e-01</leafValues></_>
        <_>
          <internalNodes>
            0 -1 109 -7.1577921509742737e-02</internalNodes>
          <leafValues>
            -9.0769392251968384e-01 3.1452187895774841e-01</leafValues></_>
        <_>
          <internalNodes>
            0 -1 53 -1.6804001643322408e-04</internalNodes>
          <leafValues>
            -8.7720245122909546e-01 3.4415200352668762e-01</leafValues></_></weakClassifiers></_>
    <!-- stage 10 -->
    <_>
      <maxWeakCount>6</maxWeakCount>
      <stageThreshold>-9.5382577180862427e-01</stageThreshold>
      <weakClassifiers>
        <_>
          <internalNodes>
            0 -1 70 5.3742617368698120e-02</internalNodes>
          <leafValues>
            -6.0000002384185791e-01 5.7073169946670532e-01</leafValues></_>
        <_>
          <internalNodes>
            0 -1 102 -5.7309411931782961e-04</internalNodes>
          <leafValues>
            -8.8030803203582764e-01 2.7005380392074585e-01</leafValues></_>
        <_>
          <internalNodes>
            0 -1 94 3.1196880154311657e-03</internalNodes>
          <leafValues>
            -4.6447110176086426e-01 6.9787406921386719e-01</leafValues></_>
        <_>
          <internalNodes>
            0 -1 126 8.7489385623484850e-04</internalNodes>
          <leafValues>
            4.0829417109489441e-01 -6.8338954448699951e-01</leafValues></_>
        <_>
          <internalNodes>
            0 -1 89 2.0842593163251877e-02</internalNodes>
          <leafValues>
            -7.9798948764801025e-01 3.1425106525421143e-01</leafValues></_>
        <_>
          <internalNodes>
            0 -1 10 -6.4650005660951138e-03</internalNodes>
          <leafValues>
            -8.8195371627807617e-01 2.6452508568763733e-01</leafValues></_></weakClassifiers></_>
    <!-- stage 11 -->
    <_>
      <maxWeakCount>6</maxWeakCount>
      <stageThreshold>-4.6902272105216980e-01</stageThreshold>
      <weakClassifiers>
        <_>
          <internalNodes>
            0 -1 86 -3.1158989295363426e-03</internalNodes>
          <leafValues>
            8.8976377248764038e-01 -4.1391941905021667e-01</leafValues></_>
        <_>
          <internalNodes>
            0 -1 56 -8.9447470381855965e-03</internalNodes>
          <leafValues>
            4.4775056838989258e-01 -6.5965634584426880e-01</leafValues></_>
        <_>
          <internalNodes>
            0 -1 75 -9.5800671260803938e-04</internalNodes>
          <leafValues>
            -6.4830064773559570e-01 3.9468321204185486e-01</leafValues></_>
        <_>
          <internalNodes>
            0 -1 46 -2.4877570103853941e-03</internalNodes>
          <leafValues>
            7.6354485750198364e-01 -3.5418626666069031e-01</leafValues></_>
        <_>
          <internalNodes>
            0 -1 17 -9.6111674793064594e-04</internalNodes>
          <leafValues>
            -8.1891465187072754e-01 3.3327972888946533e-01</leafValues></_>
        <_>
          <internalNodes>
            0 -1 128 1.5529987867921591e-03</internalNodes>
          <leafValues>
            2.7556386590003967e-01 -8.1096929311752319e-01</leafValues></_></weakClassifiers></_>
    <!-- stage 12 -->
    <_>
      <maxWeakCount>6</maxWeakCount>
      <stageThreshold>-6.9899934530258179e-01</stageThreshold>
      <weakClassifiers>
        <_>
          <internalNodes>
            0 -1 57 7.8502357006072998e-02</internalNodes>
          <leafValues>
            -6.1325967311859131e-01 5.0684928894042969e-01</leafValues></_>
        <_>
          <internalNodes>
            0 -1 113 1.4645056216977537e-04</internalNodes>
          <leafValues>
            2.8770351409912109e-01 -7.6994818449020386e-01</leafValues></_>
        <_>
          <internalNodes>
            0 -1 117 -1.0915164602920413e-04</internalNodes>
          <leafValues>
            -7.4548792839050293e-01 3.2032990455627441e-01</leafValues></_>
        <_>
          <internalNodes>
            0 -1 100 -7.4385498010087758e-05</internalNodes>
          <leafValues>
            2.7407708764076233e-01 -6.7028504610061646e-01</leafValues></_>
        <_>
          <internalNodes>
            0 -1 51 5.4221902973949909e-04</internalNodes>
          <leafValues>
            4.5220240950584412e-01 -5.0866186618804932e-01</leafValues></_>
        <_>
          <internalNodes>
            0 -1 111 2.9084105044603348e-03</internalNodes>
          <leafValues>
            -3.5423475503921509e-01 8.4508049488067627e-01</leafValues></_></weakClassifiers></_>
    <!-- stage 13 -->
    <_>
      <maxWeakCount>5</maxWeakCount>
      <stageThreshold>-4.1601526737213135e-01</stageThreshold>
      <weakClassifiers>
        <_>
          <internalNodes>
            0 -1 72 3.7607133388519287e-02</internalNodes>
          <leafValues>
            -4.5454546809196472e-01 5.5555558204650879e-01</leafValues></_>
        <_>
          <internalNodes>
            0 -1 6 -9.8497960716485977e-03</internalNodes>
          <leafValues>
            -8.7090528011322021e-01 2.7524825930595398e-01</leafValues></_>
        <_>
          <internalNodes>
            0 -1 41 5.0737962126731873e-02</internalNodes>
          <leafValues>
            -6.4416283369064331e-01 3.9573240280151367e-01</leafValues></_>
        <_>
          <internalNodes>
            0 -1 33 5.7433184701949358e-04</internalNodes>
          <leafValues>
            2.0044764876365662e-01 -7.7190375328063965e-01</leafValues></_>
        <_>
          <internalNodes>
            0 -1 34 -1.1663545155897737e-03</internalNodes>
          <leafValues>
            -6.9684559106826782e-01 3.5455742478370667e-01</leafValues></_></weakClassifiers></_>
    <!-- stage 14 -->
    <_>
      <maxWeakCount>5</maxWeakCount>
      <stageThreshold>-3.4099102020263672e-01</stageThreshold>
      <weakClassifiers>
        <_>
          <internalNodes>
            0 -1 44 1.1192641686648130e-03</internalNodes>
          <leafValues>
            2.9010239243507385e-01 -7.9439252614974976e-01</leafValues></_>
        <_>
          <internalNodes>
            0 -1 43 2.8522261418402195e-03</internalNodes>
          <leafValues>
            -3.1593909859657288e-01 7.9671978950500488e-01</leafValues></_>
        <_>
          <internalNodes>
            0 -1 35 3.5289586521685123e-03</internalNodes>
          <leafValues>
            3.6126464605331421e-01 -6.4169842004776001e-01</leafValues></_>
        <_>
          <internalNodes>
            0 -1 71 5.0070993602275848e-03</internalNodes>
          <leafValues>
            2.4347209930419922e-01 -9.3711888790130615e-01</leafValues></_>
        <_>
          <internalNodes>
            0 -1 65 -8.8200648315250874e-04</internalNodes>
          <leafValues>
            -8.0292630195617676e-01 2.6069989800453186e-01</leafValues></_></weakClassifiers></_>
    <!-- stage 15 -->
    <_>
      <maxWeakCount>8</maxWeakCount>
      <stageThreshold>-8.0095493793487549e-01</stageThreshold>
      <weakClassifiers>
        <_>
          <internalNodes>
            0 -1 93 2.8229053132236004e-03</internalNodes>
          <leafValues>
            -4.8245614767074585e-01 6.3953489065170288e-01</leafValues></_>
        <_>
          <internalNodes>
            0 -1 64 -3.7117378087714314e-04</internalNodes>
          <leafValues>
            3.9557099342346191e-01 -6.0548317432403564e-01</leafValues></_>
        <_>
          <internalNodes>
            0 -1 30 -3.7627235054969788e-02</internalNodes>
          <leafValues>
            3.8111433386802673e-01 -4.9520868062973022e-01</leafValues></_>
        <_>
          <internalNodes>
            0 -1 62 1.1101376265287399e-02</internalNodes>
          <leafValues>
            3.6217609047889709e-01 -6.0676515102386475e-01</leafValues></_>
        <_>
          <internalNodes>
            0 -1 24 -1.0895339983107988e-05</internalNodes>
          <leafValues>
            6.8248099088668823e-01 -3.8191244006156921e-01</leafValues></_>
        <_>
          <internalNodes>
            0 -1 131 -2.0595029927790165e-03</internalNodes>
          <leafValues>
            -9.3201488256454468e-01 2.5118666887283325e-01</leafValues></_>
        <_>
          <internalNodes>
            0 -1 90 -5.6504197418689728e-03</internalNodes>
          <leafValues>
            2.9451999068260193e-01 -5.8846628665924072e-01</leafValues></_>
        <_>
          <internalNodes>
            0 -1 39 -1.3015586882829666e-03</internalNodes>
          <leafValues>
            -7.2615820169448853e-01 2.6288604736328125e-01</leafValues></_></weakClassifiers></_>
    <!-- stage 16 -->
    <_>
      <maxWeakCount>5</maxWeakCount>
      <stageThreshold>-4.5885813236236572e-01</stageThreshold>
      <weakClassifiers>
        <_>
          <internalNodes>
            0 -1 63 4.9011811614036560e-02</internalNodes>
          <leafValues>
            -4.1832670569419861e-01 7.0469796657562256e-01</leafValues></_>
        <_>
          <internalNodes>
            0 -1 95 8.7724374607205391e-03</internalNodes>
          <leafValues>
            -3.1395724415779114e-01 7.0194059610366821e-01</leafValues></_>
        <_>
          <internalNodes>
            0 -1 130 -1.3299665879458189e-03</internalNodes>
          <leafValues>
            -9.5049273967742920e-01 2.3046755790710449e-01</leafValues></_>
        <_>
          <internalNodes>
            0 -1 1 -1.1211847777303774e-05</internalNodes>
          <leafValues>
            4.3043202161788940e-01 -4.2603611946105957e-01</leafValues></_>
        <_>
          <internalNodes>
            0 -1 36 1.1968952094321139e-05</internalNodes>
          <leafValues>
            -3.8747379183769226e-01 4.7766840457916260e-01</leafValues></_></weakClassifiers></_>
    <!-- stage 17 -->
    <_>
      <maxWeakCount>7</maxWeakCount>
      <stageThreshold>-9.1269117593765259e-01</stageThreshold>
      <weakClassifiers>
        <_>
          <internalNodes>
            0 -1 40 -1.9249457865953445e-02</internalNodes>
          <leafValues>
            3.8759690523147583e-01 -7.0422536134719849e-01</leafValues></_>
        <_>
          <internalNodes>
            0 -1 129 -3.3331270969938487e-05</internalNodes>
          <leafValues>
            4.0651369094848633e-01 -5.0151103734970093e-01</leafValues></_>
        <_>
          <internalNodes>
            0 -1 82 -2.7225795201957226e-04</internalNodes>
          <leafValues>
            2.4915134906768799e-01 -8.7279468774795532e-01</leafValues></_>
        <_>
          <internalNodes>
            0 -1 22 1.5823848545551300e-02</internalNodes>
          <leafValues>
            -5.1442396640777588e-01 4.1393139958381653e-01</leafValues></_>
        <_>
          <internalNodes>
            0 -1 81 -2.5154676288366318e-02</internalNodes>
          <leafValues>
            7.7106094360351562e-01 -2.8886124491691589e-01</leafValues></_>
        <_>
          <internalNodes>
            0 -1 8 1.3221618719398975e-02</internalNodes>
          <leafValues>
            -2.7385559678077698e-01 7.1693485975265503e-01</leafValues></_>
        <_>
          <internalNodes>
            0 -1 119 -1.5943914186209440e-03</internalNodes>
          <leafValues>
            -6.9438964128494263e-01 3.2383492588996887e-01</leafValues></_></weakClassifiers></_>
    <!-- stage 18 -->
    <_>
      <maxWeakCount>7</maxWeakCount>
      <stageThreshold>-1.2551386356353760e+00</stageThreshold>
      <weakClassifiers>
        <_>
          <internalNodes>
            0 -1 85 -3.3547948114573956e-03</internalNodes>
          <leafValues>
            7.2932332754135132e-01 -3.6329588294029236e-01</leafValues></_>
        <_>
          <internalNodes>
            0 -1 96 -2.8787073679268360e-03</internalNodes>
          <leafValues>
            3.2537814974784851e-01 -7.0515382289886475e-01</leafValues></_>
        <_>
          <internalNodes>
            0 -1 121 1.2773347552865744e-03</internalNodes>
          <leafValues>
            2.3622424900531769e-01 -7.9451459646224976e-01</leafValues></_>
        <_>
          <internalNodes>
            0 -1 47 1.4197883429005742e-03</internalNodes>
          <leafValues>
            3.2891979813575745e-01 -6.2786328792572021e-01</leafValues></_>
        <_>
          <internalNodes>
            0 -1 2 2.8486060909926891e-03</internalNodes>
          <leafValues>
            -2.7250224351882935e-01 8.2563430070877075e-01</leafValues></_>
        <_>
          <internalNodes>
            0 -1 16 1.4434908516705036e-02</internalNodes>
          <leafValues>
            -8.8363522291183472e-01 2.8834998607635498e-01</leafValues></_>
        <_>
          <internalNodes>
            0 -1 127 -1.5247894916683435e-03</internalNodes>
          <leafValues>
            -8.5069525241851807e-01 1.8910236656665802e-01</leafValues></_></weakClassifiers></_>
    <!-- stage 19 -->
    <_>
      <maxWeakCount>6</maxWeakCount>
      <stageThreshold>-8.2761466503143311e-01</stageThreshold>
      <weakClassifiers>
        <_>
          <internalNodes>
            0 -1 94 2.9577235691249371e-03</internalNodes>
          <leafValues>
            -4.3999999761581421e-01 5.6571429967880249e-01</leafValues></_>
        <_>
          <internalNodes>
            0 -1 99 -6.8311160430312157e-04</internalNodes>
          <leafValues>
            -8.5681283473968506e-01 2.2967645525932312e-01</leafValues></_>
        <_>
          <internalNodes>
            0 -1 4 -6.1344178393483162e-03</internalNodes>
          <leafValues>
            6.8381732702255249e-01 -3.1857207417488098e-01</leafValues></_>
        <_>
          <internalNodes>
            0 -1 114 -3.0926636100048199e-05</internalNodes>
          <leafValues>
            -8.7660670280456543e-01 2.6033031940460205e-01</leafValues></_>
        <_>
          <internalNodes>
            0 -1 78 -2.7255457825958729e-03</internalNodes>
          <leafValues>
            -7.8342860937118530e-01 2.0745024085044861e-01</leafValues></_>
        <_>
          <internalNodes>
            0 -1 12 -4.4016656465828419e-04</internalNodes>
          <leafValues>
            3.1998968124389648e-01 -5.5987149477005005e-01</leafValues></_></weakClassifiers></_>
    <!-- stage 20 -->
    <_>
      <maxWeakCount>7</maxWeakCount>
      <stageThreshold>-7.2991001605987549e-01</stageThreshold>
      <weakClassifiers>
        <_>
          <internalNodes>
            0 -1 50 4.3236218392848969e-02</internalNodes>
          <leafValues>
            -2.6530611515045166e-01 7.3584908246994019e-01</leafValues></_>
        <_>
          <internalNodes>
            0 -1 122 -3.1731911003589630e-03</internalNodes>
          <leafValues>
            8.1262433528900146e-01 -2.2557581961154938e-01</leafValues></_>
        <_>
          <internalNodes>
            0 -1 14 1.3223753776401281e-03</internalNodes>
          <leafValues>
            2.5698965787887573e-01 -7.7017831802368164e-01</leafValues></_>
        <_>
          <internalNodes>
            0 -1 118 -6.9703254848718643e-04</internalNodes>
          <leafValues>
            -6.1655658483505249e-01 2.7962422370910645e-01</leafValues></_>
        <_>
          <internalNodes>
            0 -1 91 4.4394208816811442e-04</internalNodes>
          <leafValues>
            3.2938399910926819e-01 -5.7028210163116455e-01</leafValues></_>
        <_>
          <internalNodes>
            0 -1 46 -2.8025507926940918e-03</internalNodes>
          <leafValues>
            6.2575685977935791e-01 -2.9634752869606018e-01</leafValues></_>
        <_>
          <internalNodes>
            0 -1 77 -8.1266765482723713e-04</internalNodes>
          <leafValues>
            -7.9181933403015137e-01 2.1848954260349274e-01</leafValues></_></weakClassifiers></_>
    <!-- stage 21 -->
    <_>
      <maxWeakCount>7</maxWeakCount>
      <stageThreshold>-9.9099141359329224e-01</stageThreshold>
      <weakClassifiers>
        <_>
          <internalNodes>
            0 -1 58 3.3216208219528198e-02</internalNodes>
          <leafValues>
            -4.7916665673255920e-01 4.4230768084526062e-01</leafValues></_>
        <_>
          <internalNodes>
            0 -1 0 -1.8259116914123297e-03</internalNodes>
          <leafValues>
            -7.0732146501541138e-01 2.2893495857715607e-01</leafValues></_>
        <_>
          <internalNodes>
            0 -1 19 -1.7374143004417419e-02</internalNodes>
          <leafValues>
            5.7066857814788818e-01 -3.3254805207252502e-01</leafValues></_>
        <_>
          <internalNodes>
            0 -1 116 6.5675139194354415e-04</internalNodes>
          <leafValues>
            2.2865088284015656e-01 -7.9748880863189697e-01</leafValues></_>
        <_>
          <internalNodes>
            0 -1 123 -7.3359857196919620e-05</internalNodes>
          <leafValues>
            3.4333148598670959e-01 -5.0564891099929810e-01</leafValues></_>
        <_>
          <internalNodes>
            0 -1 54 -4.1912714950740337e-03</internalNodes>
          <leafValues>
            2.8826138377189636e-01 -5.8489775657653809e-01</leafValues></_>
        <_>
          <internalNodes>
            0 -1 68 -1.1562304280232638e-05</internalNodes>
          <leafValues>
            4.6867609024047852e-01 -3.9529624581336975e-01</leafValues></_></weakClassifiers></_>
    <!-- stage 22 -->
    <_>
      <maxWeakCount>8</maxWeakCount>
      <stageThreshold>-4.9379673600196838e-01</stageThreshold>
      <weakClassifiers>
        <_>
          <internalNodes>
            0 -1 86 -2.6647800114005804e-03</internalNodes>
          <leafValues>
            5.5151516199111938e-01 -3.8723403215408325e-01</leafValues></_>
        <_>
          <internalNodes>
            0 -1 48 -1.0895339983107988e-05</internalNodes>
          <leafValues>
            5.3288513422012329e-01 -3.0775171518325806e-01</leafValues></_>
        <_>
          <internalNodes>
            0 -1 42 -5.1030394388362765e-04</internalNodes>
          <leafValues>
            2.4599170684814453e-01 -7.1854227781295776e-01</leafValues></_>
        <_>
          <internalNodes>
            0 -1 69 -6.6895305644720793e-04</internalNodes>
          <leafValues>
            -6.2948638200759888e-01 2.7582818269729614e-01</leafValues></_>
        <_>
          <internalNodes>
            0 -1 88 -1.2103588233003393e-05</internalNodes>
          <leafValues>
            3.0816367268562317e-01 -5.5490875244140625e-01</leafValues></_>
        <_>
          <internalNodes>
            0 -1 7 -4.6119322068989277e-03</internalNodes>
          <leafValues>
            7.0209437608718872e-01 -2.4028477072715759e-01</leafValues></_>
        <_>
          <internalNodes>
            0 -1 125 -7.5709261000156403e-04</internalNodes>
          <leafValues>
            -6.9019323587417603e-01 3.2173499464988708e-01</leafValues></_>
        <_>
          <internalNodes>
            0 -1 124 -1.1897268996108323e-04</internalNodes>
          <leafValues>
            3.2411906123161316e-01 -5.5327004194259644e-01</leafValues></_></weakClassifiers></_>
    <!-- stage 23 -->
    <_>
      <maxWeakCount>6</maxWeakCount>
      <stageThreshold>-4.4306638836860657e-01</stageThreshold>
      <weakClassifiers>
        <_>
          <internalNodes>
            0 -1 87 9.4717275351285934e-03</internalNodes>
          <leafValues>
            -2.9032257199287415e-01 6.6942149400711060e-01</leafValues></_>
        <_>
          <internalNodes>
            0 -1 45 3.3330139704048634e-03</internalNodes>
          <leafValues>
            -2.2592453658580780e-01 8.2721275091171265e-01</leafValues></_>
        <_>
          <internalNodes>
            0 -1 15 -7.6150945387780666e-03</internalNodes>
          <leafValues>
            3.8595199584960938e-01 -5.4816591739654541e-01</leafValues></_>
        <_>
          <internalNodes>
            0 -1 103 1.0088558774441481e-03</internalNodes>
          <leafValues>
            1.8204881250858307e-01 -1.</leafValues></_>
        <_>
          <internalNodes>
            0 -1 11 -6.7998510785400867e-03</internalNodes>
          <leafValues>
            2.5867041945457458e-01 -6.0980969667434692e-01</leafValues></_>
        <_>
          <internalNodes>
            0 -1 67 1.4710735995322466e-03</internalNodes>
          <leafValues>
            2.7262693643569946e-01 -7.5349050760269165e-01</leafValues></_></weakClassifiers></_>
    <!-- stage 24 -->
    <_>
      <maxWeakCount>7</maxWeakCount>
      <stageThreshold>-5.0445103645324707e-01</stageThreshold>
      <weakClassifiers>
        <_>
          <internalNodes>
            0 -1 85 -3.1336301472038031e-03</internalNodes>
          <leafValues>
            5.7894736528396606e-01 -3.5483869910240173e-01</leafValues></_>
        <_>
          <internalNodes>
            0 -1 61 1.1852129828184843e-03</internalNodes>
          <leafValues>
            -6.1286395788192749e-01 2.8355032205581665e-01</leafValues></_>
        <_>
          <internalNodes>
            0 -1 107 -1.5520745364483446e-05</internalNodes>
          <leafValues>
            -6.6389024257659912e-01 2.2679394483566284e-01</leafValues></_>
        <_>
          <internalNodes>
            0 -1 37 -6.1484323814511299e-03</internalNodes>
          <leafValues>
            -6.6373205184936523e-01 2.3122379183769226e-01</leafValues></_>
        <_>
          <internalNodes>
            0 -1 18 2.6506199501454830e-03</internalNodes>
          <leafValues>
            -6.4203363656997681e-01 2.4378724396228790e-01</leafValues></_>
        <_>
          <internalNodes>
            0 -1 38 8.6793198715895414e-04</internalNodes>
          <leafValues>
            1.9340740144252777e-01 -7.4414300918579102e-01</leafValues></_>
        <_>
          <internalNodes>
            0 -1 60 -1.0557053428783547e-05</internalNodes>
          <leafValues>
            5.0413119792938232e-01 -3.4835016727447510e-01</leafValues></_></weakClassifiers></_></stages>
  <features>
    <_>
      <rects>
        <_>
          0 2 2 4 -1.</_>
        <_>
          0 4 2 2 2.</_></rects>
      <tilted>0</tilted></_>
    <_>
      <rects>
        <_>
          0 4 2 4 -1.</_>
        <_>
          0 4 1 2 2.</_>
        <_>
          1 6 1 2 2.</_></rects>
      <tilted>0</tilted></_>
    <_>
      <rects>
        <_>
          0 5 3 1 -1.</_>
        <_>
          1 5 1 1 3.</_></rects>
      <tilted>0</tilted></_>
    <_>
      <rects>
        <_>
          0 5 8 9 -1.</_>
        <_>
          4 5 4 9 2.</_></rects>
      <tilted>0</tilted></_>
    <_>
      <rects>
        <_>
          0 6 3 11 -1.</_>
        <_>
          1 6 1 11 3.</_></rects>
      <tilted>0</tilted></_>
    <_>
      <rects>
        <_>
          0 6 8 14 -1.</_>
        <_>
          0 6 4 7 2.</_>
        <_>
          4 13 4 7 2.</_></rects>
      <tilted>0</tilted></_>
    <_>
      <rects>
        <_>
          0 9 18 2 -1.</_>
        <_>
          6 9 6 2 3.</_></rects>
      <tilted>0</tilted></_>
    <_>
      <rects>
        <_>
          0 13 2 5 -1.</_>
        <_>
          1 13 1 5 2.</_></rects>
      <tilted>0</tilted></_>
    <_>
      <rects>
        <_>
          0 15 4 8 -1.</_>
        <_>
          0 15 2 4 2.</_>
        <_>
          2 19 2 4 2.</_></rects>
      <tilted>0</tilted></_>
    <_>
      <rects>
        <_>
          0 16 6 8 -1.</_>
        <_>
          0 16 3 4 2.</_>
        <_>
          3 20 3 4 2.</_></rects>
      <tilted>0</tilted></_>
    <_>
      <rects>
        <_>
          1 9 15 3 -1.</_>
        <_>
          6 9 5 3 3.</_></rects>
      <tilted>0</tilted></_>
    <_>
      <rects>
        <_>
          1 10 6 10 -1.</_>
        <_>
          1 10 3 5 2.</_>
        <_>
          4 15 3 5 2.</_></rects>
      <tilted>0</tilted></_>
    <_>
      <rects>
        <_>
          1 13 10 8 -1.</_>
        <_>
          6 13 5 8 2.</_></rects>
      <tilted>0</tilted></_>
    <_>
      <rects>
        <_>
          1 14 20 10 -1.</_>
        <_>
          1 14 10 5 2.</_>
        <_>
          11 19 10 5 2.</_></rects>
      <tilted>0</tilted></_>
    <_>
      <rects>
        <_>
          1 18 1 6 -1.</_>
        <_>
          1 21 1 3 2.</_></rects>
      <tilted>0</tilted></_>
    <_>
      <rects>
        <_>
          2 3 15 6 -1.</_>
        <_>
          2 5 15 2 3.</_></rects>
      <tilted>0</tilted></_>
    <_>
      <rects>
        <_>
          2 5 22 9 -1.</_>
        <_>
          2 8 22 3 3.</_></rects>
      <tilted>0</tilted></_>
    <_>
      <rects>
        <_>
          2 11 4 1 -1.</_>
        <_>
          4 11 2 1 2.</_></rects>
      <tilted>0</tilted></_>
    <_>
      <rects>
        <_>
          3 7 9 10 -1.</_>
        <_>
          6 7 3 10 3.</_></rects>
      <tilted>0</tilted></_>
    <_>
      <rects>
        <_>
          3 17 12 6 -1.</_>
        <_>
          3 17 6 3 2.</_>
        <_>
          9 20 6 3 2.</_></rects>
      <tilted>0</tilted></_>
    <_>
      <rects>
        <_>
          4 1 7 15 -1.</_>
        <_>
          4 6 7 5 3.</_></rects>
      <tilted>0</tilted></_>
    <_>
      <rects>
        <_>
          4 8 12 6 -1.</_>
        <_>
          4 11 12 3 2.</_></rects>
      <tilted>0</tilted></_>
    <_>
      <rects>
        <_>
          4 9 12 8 -1.</_>
        <_>
          4 9 6 4 2.</_>
        <_>
          10 13 6 4 2.</_></rects>
      <tilted>0</tilted></_>
    <_>
      <rects>
        <_>
          5 1 11 15 -1.</_>
        <_>
          5 6 11 5 3.</_></rects>
      <tilted>0</tilted></_>
    <_>
      <rects>
        <_>
          5 5 2 2 -1.</_>
        <_>
          5 5 1 1 2.</_>
        <_>
          6 6 1 1 2.</_></rects>
      <tilted>0</tilted></_>
    <_>
      <rects>
        <_>
          5 10 10 8 -1.</_>
        <_>
          5 10 5 4 2.</_>
        <_>
          10 14 5 4 2.</_></rects>
      <tilted>0</tilted></_>
    <_>
      <rects>
        <_>
          5 13 12 8 -1.</_>
        <_>
          11 13 6 8 2.</_></rects>
      <tilted>0</tilted></_>
    <_>
      <rects>
        <_>
          6 0 4 18 -1.</_>
        <_>
          6 6 4 6 3.</_></rects>
      <tilted>0</tilted></_>
    <_>
      <rects>
        <_>
          6 6 4 14 -1.</_>
        <_>
          6 13 4 7 2.</_></rects>
      <tilted>0</tilted></_>
    <_>
      <rects>
        <_>
          6 6 10 6 -1.</_>
        <_>
          6 8 10 2 3.</_></rects>
      <tilted>0</tilted></_>
    <_>
      <rects>
        <_>
          6 8 7 8 -1.</_>
        <_>
          6 12 7 4 2.</_></rects>
      <tilted>0</tilted></_>
    <_>
      <rects>
        <_>
          6 8 11 16 -1.</_>
        <_>
          6 16 11 8 2.</_></rects>
      <tilted>0</tilted></_>
    <_>
      <rects>
        <_>
          7 3 9 12 -1.</_>
        <_>
          7 7 9 4 3.</_></rects>
      <tilted>0</tilted></_>
    <_>
      <rects>
        <_>
          7 8 4 1 -1.</_>
        <_>
          9 8 2 1 2.</_></rects>
      <tilted>0</tilted></_>
    <_>
      <rects>
        <_>
          7 8 9 1 -1.</_>
        <_>
          10 8 3 1 3.</_></rects>
      <tilted>0</tilted></_>
    <_>
      <rects>
        <_>
          7 12 4 6 -1.</_>
        <_>
          9 12 2 6 2.</_></rects>
      <tilted>0</tilted></_>
    <_>
      <rects>
        <_>
          7 17 2 1 -1.</_>
        <_>
          8 17 1 1 2.</_></rects>
      <tilted>0</tilted></_>
    <_>
      <rects>
        <_>
          8 1 6 3 -1.</_>
        <_>
          10 1 2 3 3.</_></rects>
      <tilted>0</tilted></_>
    <_>
      <rects>
        <_>
          8 5 1 2 -1.</_>
        <_>
          8 6 1 1 2.</_></rects>
      <tilted>0</tilted></_>
    <_>
      <rects>
        <_>
          8 6 4 16 -1.</_>
        <_>
          8 6 2 8 2.</_>
        <_>
          10 14 2 8 2.</_></rects>
      <tilted>0</tilted></_>
    <_>
      <rects>
        <_>
          8 6 9 11 -1.</_>
        <_>
          11 6 3 11 3.</_></rects>
      <tilted>0</tilted></_>
    <_>
      <rects>
        <_>
          8 7 15 8 -1.</_>
        <_>
          13 7 5 8 3.</_></rects>
      <tilted>0</tilted></_>
    <_>
      <rects>
        <_>
          8 8 1 15 -1.</_>
        <_>
          8 13 1 5 3.</_></rects>
      <tilted>0</tilted></_>
    <_>
      <rects>
        <_>
          8 9 1 3 -1.</_>
        <_>
          8 10 1 1 3.</_></rects>
      <tilted>0</tilted></_>
    <_>
      <rects>
        <_>
          9 8 1 16 -1.</_>
        <_>
          9 16 1 8 2.</_></rects>
      <tilted>0</tilted></_>
    <_>
      <rects>
        <_>
          9 9 1 3 -1.</_>
        <_>
          9 10 1 1 3.</_></rects>
      <tilted>0</tilted></_>
    <_>
      <rects>
        <_>
          9 10 1 3 -1.</_>
        <_>
          9 11 1 1 3.</_></rects>
      <tilted>0</tilted></_>
    <_>
      <rects>
        <_>
          9 16 2 5 -1.</_>
        <_>
          10 16 1 5 2.</_></rects>
      <tilted>0</tilted></_>
    <_>
      <rects>
        <_>
          9 20 1 2 -1.</_>
        <_>
          9 21 1 1 2.</_></rects>
      <tilted>0</tilted></_>
    <_>
      <rects>
        <_>
          10 5 4 6 -1.</_>
        <_>
          10 7 4 2 3.</_></rects>
      <tilted>0</tilted></_>
    <_>
      <rects>
        <_>
          10 5 5 6 -1.</_>
        <_>
          10 7 5 2 3.</_></rects>
      <tilted>0</tilted></_>
    <_>
      <rects>
        <_>
          10 7 4 2 -1.</_>
        <_>
          12 7 2 2 2.</_></rects>
      <tilted>0</tilted></_>
    <_>
      <rects>
        <_>
          10 7 8 8 -1.</_>
        <_>
          10 7 4 4 2.</_>
        <_>
          14 11 4 4 2.</_></rects>
      <tilted>0</tilted></_>
    <_>
      <rects>
        <_>
          10 8 4 1 -1.</_>
        <_>
          12 8 2 1 2.</_></rects>
      <tilted>0</tilted></_>
    <_>
      <rects>
        <_>
          10 8 4 6 -1.</_>
        <_>
          10 10 4 2 3.</_></rects>
      <tilted>0</tilted></_>
    <_>
      <rects>
        <_>
          10 8 5 4 -1.</_>
        <_>
          10 10 5 2 2.</_></rects>
      <tilted>0</tilted></_>
    <_>
      <rects>
        <_>
          10 8 9 6 -1.</_>
        <_>
          10 11 9 3 2.</_></rects>
      <tilted>0</tilted></_>
    <_>
      <rects>
        <_>
          10 9 12 7 -1.</_>
        <_>
          14 9 4 7 3.</_></rects>
      <tilted>0</tilted></_>
    <_>
      <rects>
        <_>
          10 10 12 2 -1.</_>
        <_>
          14 10 4 2 3.</_></rects>
      <tilted>0</tilted></_>
    <_>
      <rects>
        <_>
          10 10 12 4 -1.</_>
        <_>
          14 10 4 4 3.</_></rects>
      <tilted>0</tilted></_>
    <_>
      <rects>
        <_>
          10 11 2 2 -1.</_>
        <_>
          10 11 1 1 2.</_>
        <_>
          11 12 1 1 2.</_></rects>
      <tilted>0</tilted></_>
    <_>
      <rects>
        <_>
          11 2 1 8 -1.</_>
        <_>
          11 6 1 4 2.</_></rects>
      <tilted>0</tilted></_>
    <_>
      <rects>
        <_>
          11 2 12 14 -1.</_>
        <_>
          11 2 6 7 2.</_>
        <_>
          17 9 6 7 2.</_></rects>
      <tilted>0</tilted></_>
    <_>
      <rects>
        <_>
          11 4 4 9 -1.</_>
        <_>
          11 7 4 3 3.</_></rects>
      <tilted>0</tilted></_>
    <_>
      <rects>
        <_>
          11 8 1 6 -1.</_>
        <_>
          11 10 1 2 3.</_></rects>
      <tilted>0</tilted></_>
    <_>
      <rects>
        <_>
          11 8 4 1 -1.</_>
        <_>
          13 8 2 1 2.</_></rects>
      <tilted>0</tilted></_>
    <_>
      <rects>
        <_>
          11 10 12 6 -1.</_>
        <_>
          15 10 4 6 3.</_></rects>
      <tilted>0</tilted></_>
    <_>
      <rects>
        <_>
          11 12 1 4 -1.</_>
        <_>
          11 14 1 2 2.</_></rects>
      <tilted>0</tilted></_>
    <_>
      <rects>
        <_>
          11 16 1 2 -1.</_>
        <_>
          11 17 1 1 2.</_></rects>
      <tilted>0</tilted></_>
    <_>
      <rects>
        <_>
          12 0 4 12 -1.</_>
        <_>
          12 0 2 6 2.</_>
        <_>
          14 6 2 6 2.</_></rects>
      <tilted>0</tilted></_>
    <_>
      <rects>
        <_>
          12 0 9 15 -1.</_>
        <_>
          15 0 3 15 3.</_></rects>
      <tilted>0</tilted></_>
    <_>
      <rects>
        <_>
          12 6 2 9 -1.</_>
        <_>
          13 6 1 9 2.</_></rects>
      <tilted>0</tilted></_>
    <_>
      <rects>
        <_>
          12 6 6 8 -1.</_>
        <_>
          12 6 3 4 2.</_>
        <_>
          15 10 3 4 2.</_></rects>
      <tilted>0</tilted></_>
    <_>
      <rects>
        <_>
          12 7 6 6 -1.</_>
        <_>
          12 7 3 3 2.</_>
        <_>
          15 10 3 3 2.</_></rects>
      <tilted>0</tilted></_>
    <_>
      <rects>
        <_>
          12 9 6 2 -1.</_>
        <_>
          12 9 3 1 2.</_>
        <_>
          15 10 3 1 2.</_></rects>
      <tilted>0</tilted></_>
    <_>
      <rects>
        <_>
          12 10 2 2 -1.</_>
        <_>
          12 11 2 1 2.</_></rects>
      <tilted>0</tilted></_>
    <_>
      <rects>
        <_>
          12 10 9 4 -1.</_>
        <_>
          15 10 3 4 3.</_></rects>
      <tilted>0</tilted></_>
    <_>
      <rects>
        <_>
          12 13 1 3 -1.</_>
        <_>
          12 14 1 1 3.</_></rects>
      <tilted>0</tilted></_>
    <_>
      <rects>
        <_>
          12 14 3 4 -1.</_>
        <_>
          12 16 3 2 2.</_></rects>
      <tilted>0</tilted></_>
    <_>
      <rects>
        <_>
          13 4 2 9 -1.</_>
        <_>
          13 7 2 3 3.</_></rects>
      <tilted>0</tilted></_>
    <_>
      <rects>
        <_>
          13 4 5 6 -1.</_>
        <_>
          13 7 5 3 2.</_></rects>
      <tilted>0</tilted></_>
    <_>
      <rects>
        <_>
          13 5 10 4 -1.</_>
        <_>
          13 5 5 2 2.</_>
        <_>
          18 7 5 2 2.</_></rects>
      <tilted>0</tilted></_>
    <_>
      <rects>
        <_>
          13 8 1 6 -1.</_>
        <_>
          13 11 1 3 2.</_></rects>
      <tilted>0</tilted></_>
    <_>
      <rects>
        <_>
          13 8 6 8 -1.</_>
        <_>
          15 8 2 8 3.</_></rects>
      <tilted>0</tilted></_>
    <_>
      <rects>
        <_>
          13 10 6 3 -1.</_>
        <_>
          15 10 2 3 3.</_></rects>
      <tilted>0</tilted></_>
    <_>
      <rects>
        <_>
          13 11 3 1 -1.</_>
        <_>
          14 11 1 1 3.</_></rects>
      <tilted>0</tilted></_>
    <_>
      <rects>
        <_>
          13 12 3 1 -1.</_>
        <_>
          14 12 1 1 3.</_></rects>
      <tilted>0</tilted></_>
    <_>
      <rects>
        <_>
          13 14 6 1 -1.</_>
        <_>
          15 14 2 1 3.</_></rects>
      <tilted>0</tilted></_>
    <_>
      <rects>
        <_>
          13 20 4 2 -1.</_>
        <_>
          13 21 4 1 2.</_></rects>
      <tilted>0</tilted></_>
    <_>
      <rects>
        <_>
          14 0 2 24 -1.</_>
        <_>
          14 8 2 8 3.</_></rects>
      <tilted>0</tilted></_>
    <_>
      <rects>
        <_>
          14 2 6 9 -1.</_>
        <_>
          14 5 6 3 3.</_></rects>
      <tilted>0</tilted></_>
    <_>
      <rects>
        <_>
          14 9 3 1 -1.</_>
        <_>
          15 9 1 1 3.</_></rects>
      <tilted>0</tilted></_>
    <_>
      <rects>
        <_>
          14 11 2 1 -1.</_>
        <_>
          15 11 1 1 2.</_></rects>
      <tilted>0</tilted></_>
    <_>
      <rects>
        <_>
          14 11 3 1 -1.</_>
        <_>
          15 11 1 1 3.</_></rects>
      <tilted>0</tilted></_>
    <_>
      <rects>
        <_>
          14 12 3 1 -1.</_>
        <_>
          15 12 1 1 3.</_></rects>
      <tilted>0</tilted></_>
    <_>
      <rects>
        <_>
          14 12 6 1 -1.</_>
        <_>
          16 12 2 1 3.</_></rects>
      <tilted>0</tilted></_>
    <_>
      <rects>
        <_>
          14 12 3 10 -1.</_>
        <_>
          14 17 3 5 2.</_></rects>
      <tilted>0</tilted></_>
    <_>
      <rects>
        <_>
          15 2 6 12 -1.</_>
        <_>
          15 2 3 6 2.</_>
        <_>
          18 8 3 6 2.</_></rects>
      <tilted>0</tilted></_>
    <_>
      <rects>
        <_>
          15 4 8 12 -1.</_>
        <_>
          15 4 4 6 2.</_>
        <_>
          19 10 4 6 2.</_></rects>
      <tilted>0</tilted></_>
    <_>
      <rects>
        <_>
          15 7 1 6 -1.</_>
        <_>
          15 9 1 2 3.</_></rects>
      <tilted>0</tilted></_>
    <_>
      <rects>
        <_>
          15 7 6 3 -1.</_>
        <_>
          17 7 2 3 3.</_></rects>
      <tilted>0</tilted></_>
    <_>
      <rects>
        <_>
          15 9 1 2 -1.</_>
        <_>
          15 10 1 1 2.</_></rects>
      <tilted>0</tilted></_>
    <_>
      <rects>
        <_>
          15 9 1 3 -1.</_>
        <_>
          15 10 1 1 3.</_></rects>
      <tilted>0</tilted></_>
    <_>
      <rects>
        <_>
          15 9 2 2 -1.</_>
        <_>
          16 9 1 2 2.</_></rects>
      <tilted>0</tilted></_>
    <_>
      <rects>
        <_>
          15 9 6 14 -1.</_>
        <_>
          15 9 3 7 2.</_>
        <_>
          18 16 3 7 2.</_></rects>
      <tilted>0</tilted></_>
    <_>
      <rects>
        <_>
          15 10 1 2 -1.</_>
        <_>
          15 11 1 1 2.</_></rects>
      <tilted>0</tilted></_>
    <_>
      <rects>
        <_>
          15 10 1 3 -1.</_>
        <_>
          15 11 1 1 3.</_></rects>
      <tilted>0</tilted></_>
    <_>
      <rects>
        <_>
          15 11 1 2 -1.</_>
        <_>
          15 12 1 1 2.</_></rects>
      <tilted>0</tilted></_>
    <_>
      <rects>
        <_>
          15 12 2 1 -1.</_>
        <_>
          16 12 1 1 2.</_></rects>
      <tilted>0</tilted></_>
    <_>
      <rects>
        <_>
          16 4 8 16 -1.</_>
        <_>
          20 4 4 16 2.</_></rects>
      <tilted>0</tilted></_>
    <_>
      <rects>
        <_>
          16 5 1 10 -1.</_>
        <_>
          16 10 1 5 2.</_></rects>
      <tilted>0</tilted></_>
    <_>
      <rects>
        <_>
          16 10 3 1 -1.</_>
        <_>
          17 10 1 1 3.</_></rects>
      <tilted>0</tilted></_>
    <_>
      <rects>
        <_>
          16 10 1 3 -1.</_>
        <_>
          16 11 1 1 3.</_></rects>
      <tilted>0</tilted></_>
    <_>
      <rects>
        <_>
          16 10 1 4 -1.</_>
        <_>
          16 12 1 2 2.</_></rects>
      <tilted>0</tilted></_>
    <_>
      <rects>
        <_>
          16 10 1 6 -1.</_>
        <_>
          16 12 1 2 3.</_></rects>
      <tilted>0</tilted></_>
    <_>
      <rects>
        <_>
          16 11 1 2 -1.</_>
        <_>
          16 12 1 1 2.</_></rects>
      <tilted>0</tilted></_>
    <_>
      <rects>
        <_>
          16 11 2 2 -1.</_>
        <_>
          16 12 2 1 2.</_></rects>
      <tilted>0</tilted></_>
    <_>
      <rects>
        <_>
          16 12 1 2 -1.</_>
        <_>
          16 13 1 1 2.</_></rects>
      <tilted>0</tilted></_>
    <_>
      <rects>
        <_>
          16 13 1 2 -1.</_>
        <_>
          16 14 1 1 2.</_></rects>
      <tilted>0</tilted></_>
    <_>
      <rects>
        <_>
          16 20 4 3 -1.</_>
        <_>
          18 20 2 3 2.</_></rects>
      <tilted>0</tilted></_>
    <_>
      <rects>
        <_>
          16 21 2 1 -1.</_>
        <_>
          17 21 1 1 2.</_></rects>
      <tilted>0</tilted></_>
    <_>
      <rects>
        <_>
          16 23 4 1 -1.</_>
        <_>
          18 23 2 1 2.</_></rects>
      <tilted>0</tilted></_>
    <_>
      <rects>
        <_>
          17 10 2 1 -1.</_>
        <_>
          18 10 1 1 2.</_></rects>
      <tilted>0</tilted></_>
    <_>
      <rects>
        <_>
          18 7 6 2 -1.</_>
        <_>
          18 8 6 1 2.</_></rects>
      <tilted>0</tilted></_>
    <_>
      <rects>
        <_>
          19 2 1 8 -1.</_>
        <_>
          19 6 1 4 2.</_></rects>
      <tilted>0</tilted></_>
    <_>
      <rects>
        <_>
          19 11 2 2 -1.</_>
        <_>
          20 11 1 2 2.</_></rects>
      <tilted>0</tilted></_>
    <_>
      <rects>
        <_>
          19 22 5 2 -1.</_>
        <_>
          19 23 5 1 2.</_></rects>
      <tilted>0</tilted></_>
    <_>
      <rects>
        <_>
          20 0 1 4 -1.</_>
        <_>
          20 2 1 2 2.</_></rects>
      <tilted>0</tilted></_>
    <_>
      <rects>
        <_>
          20 21 4 3 -1.</_>
        <_>
          22 21 2 3 2.</_></rects>
      <tilted>0</tilted></_>
    <_>
      <rects>
        <_>
          21 18 1 6 -1.</_>
        <_>
          21 21 1 3 2.</_></rects>
      <tilted>0</tilted></_>
    <_>
      <rects>
        <_>
          23 2 1 2 -1.</_>
        <_>
          23 3 1 1 2.</_></rects>
      <tilted>0</tilted></_>
    <_>
      <rects>
        <_>
          23 3 1 4 -1.</_>
        <_>
          23 5 1 2 2.</_></rects>
      <tilted>0</tilted></_></features></cascade>
</opencv_storage>
