<?xml version="1.0"?>
<opencv_storage>
<stage13>
  <maxWeakCount>5</maxWeakCount>
  <stageThreshold>-4.1601526737213135e-01</stageThreshold>
  <weakClassifiers>
    <_>
      <internalNodes>
        0 -1 124399 3.7607133388519287e-02</internalNodes>
      <leafValues>
        -4.5454546809196472e-01 5.5555558204650879e-01</leafValues></_>
    <_>
      <internalNodes>
        0 -1 8388 -9.8497960716485977e-03</internalNodes>
      <leafValues>
        -8.7090528011322021e-01 2.7524825930595398e-01</leafValues></_>
    <_>
      <internalNodes>
        0 -1 94470 5.0737962126731873e-02</internalNodes>
      <leafValues>
        -6.4416283369064331e-01 3.9573240280151367e-01</leafValues></_>
    <_>
      <internalNodes>
        0 -1 85829 5.7433184701949358e-04</internalNodes>
      <leafValues>
        2.0044764876365662e-01 -7.7190375328063965e-01</leafValues></_>
    <_>
      <internalNodes>
        0 -1 85884 -1.1663545155897737e-03</internalNodes>
      <leafValues>
        -6.9684559106826782e-01 3.5455742478370667e-01</leafValues></_></weakClassifiers></stage13>
</opencv_storage>
