<?xml version="1.0"?>
<opencv_storage>
<stage24>
  <maxWeakCount>7</maxWeakCount>
  <stageThreshold>-5.0445103645324707e-01</stageThreshold>
  <weakClassifiers>
    <_>
      <internalNodes>
        0 -1 132072 -3.1336301472038031e-03</internalNodes>
      <leafValues>
        5.7894736528396606e-01 -3.5483869910240173e-01</leafValues></_>
    <_>
      <internalNodes>
        0 -1 115530 1.1852129828184843e-03</internalNodes>
      <leafValues>
        -6.1286395788192749e-01 2.8355032205581665e-01</leafValues></_>
    <_>
      <internalNodes>
        0 -1 142620 -1.5520745364483446e-05</internalNodes>
      <leafValues>
        -6.6389024257659912e-01 2.2679394483566284e-01</leafValues></_>
    <_>
      <internalNodes>
        0 -1 90639 -6.1484323814511299e-03</internalNodes>
      <leafValues>
        -6.6373205184936523e-01 2.3122379183769226e-01</leafValues></_>
    <_>
      <internalNodes>
        0 -1 43848 2.6506199501454830e-03</internalNodes>
      <leafValues>
        -6.4203363656997681e-01 2.4378724396228790e-01</leafValues></_>
    <_>
      <internalNodes>
        0 -1 93111 8.6793198715895414e-04</internalNodes>
      <leafValues>
        1.9340740144252777e-01 -7.4414300918579102e-01</leafValues></_>
    <_>
      <internalNodes>
        0 -1 112169 -1.0557053428783547e-05</internalNodes>
      <leafValues>
        5.0413119792938232e-01 -3.4835016727447510e-01</leafValues></_></weakClassifiers></stage24>
</opencv_storage>
