<?xml version="1.0"?>
<opencv_storage>
<stage6>
  <maxWeakCount>7</maxWeakCount>
  <stageThreshold>-1.2381402254104614e+00</stageThreshold>
  <weakClassifiers>
    <_>
      <internalNodes>
        0 -1 61917 1.1220686137676239e-01</internalNodes>
      <leafValues>
        -6.7021274566650391e-01 5.9433960914611816e-01</leafValues></_>
    <_>
      <internalNodes>
        0 -1 140920 -7.1605988778173923e-03</internalNodes>
      <leafValues>
        3.2707270979881287e-01 -8.0484765768051147e-01</leafValues></_>
    <_>
      <internalNodes>
        0 -1 142154 2.0303265046095476e-05</internalNodes>
      <leafValues>
        3.3429825305938721e-01 -8.4543418884277344e-01</leafValues></_>
    <_>
      <internalNodes>
        0 -1 137618 3.4398818388581276e-03</internalNodes>
      <leafValues>
        -3.9554399251937866e-01 8.4385704994201660e-01</leafValues></_>
    <_>
      <internalNodes>
        0 -1 142824 1.5546844224445522e-05</internalNodes>
      <leafValues>
        4.0123075246810913e-01 -7.2474128007888794e-01</leafValues></_>
    <_>
      <internalNodes>
        0 -1 23913 -6.3524082303047180e-02</internalNodes>
      <leafValues>
        7.4991142749786377e-01 -4.2459926009178162e-01</leafValues></_>
    <_>
      <internalNodes>
        0 -1 142154 -2.9899086803197861e-04</internalNodes>
      <leafValues>
        -9.2151236534118652e-01 3.6934655904769897e-01</leafValues></_></weakClassifiers></stage6>
</opencv_storage>
