<?xml version="1.0"?>
<opencv_storage>
<stage15>
  <maxWeakCount>8</maxWeakCount>
  <stageThreshold>-8.0095493793487549e-01</stageThreshold>
  <weakClassifiers>
    <_>
      <internalNodes>
        0 -1 137620 2.8229053132236004e-03</internalNodes>
      <leafValues>
        -4.8245614767074585e-01 6.3953489065170288e-01</leafValues></_>
    <_>
      <internalNodes>
        0 -1 118256 -3.7117378087714314e-04</internalNodes>
      <leafValues>
        3.9557099342346191e-01 -6.0548317432403564e-01</leafValues></_>
    <_>
      <internalNodes>
        0 -1 76603 -3.7627235054969788e-02</internalNodes>
      <leafValues>
        3.8111433386802673e-01 -4.9520868062973022e-01</leafValues></_>
    <_>
      <internalNodes>
        0 -1 115884 1.1101376265287399e-02</internalNodes>
      <leafValues>
        3.6217609047889709e-01 -6.0676515102386475e-01</leafValues></_>
    <_>
      <internalNodes>
        0 -1 64267 -1.0895339983107988e-05</internalNodes>
      <leafValues>
        6.8248099088668823e-01 -3.8191244006156921e-01</leafValues></_>
    <_>
      <internalNodes>
        0 -1 162158 -2.0595029927790165e-03</internalNodes>
      <leafValues>
        -9.3201488256454468e-01 2.5118666887283325e-01</leafValues></_>
    <_>
      <internalNodes>
        0 -1 134953 -5.6504197418689728e-03</internalNodes>
      <leafValues>
        2.9451999068260193e-01 -5.8846628665924072e-01</leafValues></_>
    <_>
      <internalNodes>
        0 -1 93766 -1.3015586882829666e-03</internalNodes>
      <leafValues>
        -7.2615820169448853e-01 2.6288604736328125e-01</leafValues></_></weakClassifiers></stage15>
</opencv_storage>
