<?xml version="1.0"?>
<opencv_storage>
<stage11>
  <maxWeakCount>6</maxWeakCount>
  <stageThreshold>-4.6902272105216980e-01</stageThreshold>
  <weakClassifiers>
    <_>
      <internalNodes>
        0 -1 132316 -3.1158989295363426e-03</internalNodes>
      <leafValues>
        8.8976377248764038e-01 -4.1391941905021667e-01</leafValues></_>
    <_>
      <internalNodes>
        0 -1 111352 -8.9447470381855965e-03</internalNodes>
      <leafValues>
        4.4775056838989258e-01 -6.5965634584426880e-01</leafValues></_>
    <_>
      <internalNodes>
        0 -1 125795 -9.5800671260803938e-04</internalNodes>
      <leafValues>
        -6.4830064773559570e-01 3.9468321204185486e-01</leafValues></_>
    <_>
      <internalNodes>
        0 -1 104015 -2.4877570103853941e-03</internalNodes>
      <leafValues>
        7.6354485750198364e-01 -3.5418626666069031e-01</leafValues></_>
    <_>
      <internalNodes>
        0 -1 34426 -9.6111674793064594e-04</internalNodes>
      <leafValues>
        -8.1891465187072754e-01 3.3327972888946533e-01</leafValues></_>
    <_>
      <internalNodes>
        0 -1 159712 1.5529987867921591e-03</internalNodes>
      <leafValues>
        2.7556386590003967e-01 -8.1096929311752319e-01</leafValues></_></weakClassifiers></stage11>
</opencv_storage>
