<?xml version="1.0"?>
<opencv_storage>
<stage14>
  <maxWeakCount>5</maxWeakCount>
  <stageThreshold>-3.4099102020263672e-01</stageThreshold>
  <weakClassifiers>
    <_>
      <internalNodes>
        0 -1 103194 1.1192641686648130e-03</internalNodes>
      <leafValues>
        2.9010239243507385e-01 -7.9439252614974976e-01</leafValues></_>
    <_>
      <internalNodes>
        0 -1 95191 2.8522261418402195e-03</internalNodes>
      <leafValues>
        -3.1593909859657288e-01 7.9671978950500488e-01</leafValues></_>
    <_>
      <internalNodes>
        0 -1 87600 3.5289586521685123e-03</internalNodes>
      <leafValues>
        3.6126464605331421e-01 -6.4169842004776001e-01</leafValues></_>
    <_>
      <internalNodes>
        0 -1 124298 5.0070993602275848e-03</internalNodes>
      <leafValues>
        2.4347209930419922e-01 -9.3711888790130615e-01</leafValues></_>
    <_>
      <internalNodes>
        0 -1 118301 -8.8200648315250874e-04</internalNodes>
      <leafValues>
        -8.0292630195617676e-01 2.6069989800453186e-01</leafValues></_></weakClassifiers></stage14>
</opencv_storage>
