<?xml version="1.0"?>
<opencv_storage>
<stage20>
  <maxWeakCount>7</maxWeakCount>
  <stageThreshold>-7.2991001605987549e-01</stageThreshold>
  <weakClassifiers>
    <_>
      <internalNodes>
        0 -1 109888 4.3236218392848969e-02</internalNodes>
      <leafValues>
        -2.6530611515045166e-01 7.3584908246994019e-01</leafValues></_>
    <_>
      <internalNodes>
        0 -1 150659 -3.1731911003589630e-03</internalNodes>
      <leafValues>
        8.1262433528900146e-01 -2.2557581961154938e-01</leafValues></_>
    <_>
      <internalNodes>
        0 -1 25016 1.3223753776401281e-03</internalNodes>
      <leafValues>
        2.5698965787887573e-01 -7.7017831802368164e-01</leafValues></_>
    <_>
      <internalNodes>
        0 -1 147401 -6.9703254848718643e-04</internalNodes>
      <leafValues>
        -6.1655658483505249e-01 2.7962422370910645e-01</leafValues></_>
    <_>
      <internalNodes>
        0 -1 137088 4.4394208816811442e-04</internalNodes>
      <leafValues>
        3.2938399910926819e-01 -5.7028210163116455e-01</leafValues></_>
    <_>
      <internalNodes>
        0 -1 104015 -2.8025507926940918e-03</internalNodes>
      <leafValues>
        6.2575685977935791e-01 -2.9634752869606018e-01</leafValues></_>
    <_>
      <internalNodes>
        0 -1 126627 -8.1266765482723713e-04</internalNodes>
      <leafValues>
        -7.9181933403015137e-01 2.1848954260349274e-01</leafValues></_></weakClassifiers></stage20>
</opencv_storage>
