<?xml version="1.0"?>
<opencv_storage>
<cascade>
  <stageType>BOOST</stageType>
  <featureType>HAAR</featureType>
  <height>40</height>
  <width>80</width>
  <stageParams>
    <boostType>GAB</boostType>
    <minHitRate>9.9900001287460327e-01</minHitRate>
    <maxFalseAlarm>5.0000000000000000e-01</maxFalseAlarm>
    <weightTrimRate>9.4999999999999996e-01</weightTrimRate>
    <maxDepth>1</maxDepth>
    <maxWeakCount>100</maxWeakCount></stageParams>
  <featureParams>
    <maxCatCount>0</maxCatCount>
    <featSize>1</featSize>
    <mode>ALL</mode></featureParams>
  <stageNum>7</stageNum>
  <stages>
    <!-- stage 0 -->
    <_>
      <maxWeakCount>1</maxWeakCount>
      <stageThreshold>1.</stageThreshold>
      <weakClassifiers>
        <_>
          <internalNodes>
            0 -1 11 6.8567134439945221e-04</internalNodes>
          <leafValues>
            -1. 1.</leafValues></_></weakClassifiers></_>
    <!-- stage 1 -->
    <_>
      <maxWeakCount>3</maxWeakCount>
      <stageThreshold>-1.1547242403030396e+00</stageThreshold>
      <weakClassifiers>
        <_>
          <internalNodes>
            0 -1 17 7.0899608545005322e-04</internalNodes>
          <leafValues>
            -9.5323741436004639e-01 7.1608042716979980e-01</leafValues></_>
        <_>
          <internalNodes>
            0 -1 7 7.4512074934318662e-04</internalNodes>
          <leafValues>
            -8.6494547128677368e-01 7.7485448122024536e-01</leafValues></_>
        <_>
          <internalNodes>
            0 -1 20 -6.6123940050601959e-03</internalNodes>
          <leafValues>
            6.6345864534378052e-01 -8.7530851364135742e-01</leafValues></_></weakClassifiers></_>
    <!-- stage 2 -->
    <_>
      <maxWeakCount>3</maxWeakCount>
      <stageThreshold>-1.3424450159072876e+00</stageThreshold>
      <weakClassifiers>
        <_>
          <internalNodes>
            0 -1 0 5.5074751377105713e-02</internalNodes>
          <leafValues>
            -9.5314121246337891e-01 4.0634596347808838e-01</leafValues></_>
        <_>
          <internalNodes>
            0 -1 18 -1.8826724262908101e-03</internalNodes>
          <leafValues>
            6.4319628477096558e-01 -8.5695266723632812e-01</leafValues></_>
        <_>
          <internalNodes>
            0 -1 8 -1.0134575888514519e-02</internalNodes>
          <leafValues>
            5.6571716070175171e-01 -8.9183831214904785e-01</leafValues></_></weakClassifiers></_>
    <!-- stage 3 -->
    <_>
      <maxWeakCount>5</maxWeakCount>
      <stageThreshold>-2.6031286716461182e+00</stageThreshold>
      <weakClassifiers>
        <_>
          <internalNodes>
            0 -1 24 -1.1975482106208801e-02</internalNodes>
          <leafValues>
            7.4394464492797852e-01 -8.8663345575332642e-01</leafValues></_>
        <_>
          <internalNodes>
            0 -1 6 2.9834322631359100e-03</internalNodes>
          <leafValues>
            -8.5479128360748291e-01 5.5737018585205078e-01</leafValues></_>
        <_>
          <internalNodes>
            0 -1 10 -1.4315703883767128e-03</internalNodes>
          <leafValues>
            4.1455230116844177e-01 -8.7868386507034302e-01</leafValues></_>
        <_>
          <internalNodes>
            0 -1 4 1.1784380301833153e-02</internalNodes>
          <leafValues>
            -7.1083301305770874e-01 6.2939447164535522e-01</leafValues></_>
        <_>
          <internalNodes>
            0 -1 15 8.3751212805509567e-03</internalNodes>
          <leafValues>
            -6.0250324010848999e-01 7.2781288623809814e-01</leafValues></_></weakClassifiers></_>
    <!-- stage 4 -->
    <_>
      <maxWeakCount>5</maxWeakCount>
      <stageThreshold>-1.5775032043457031e+00</stageThreshold>
      <weakClassifiers>
        <_>
          <internalNodes>
            0 -1 23 -1.4236210845410824e-02</internalNodes>
          <leafValues>
            7.3359072208404541e-01 -8.6709576845169067e-01</leafValues></_>
        <_>
          <internalNodes>
            0 -1 9 -4.4683706946671009e-03</internalNodes>
          <leafValues>
            3.7086525559425354e-01 -9.3704628944396973e-01</leafValues></_>
        <_>
          <internalNodes>
            0 -1 14 -7.0596847217530012e-04</internalNodes>
          <leafValues>
            6.0811090469360352e-01 -7.5544434785842896e-01</leafValues></_>
        <_>
          <internalNodes>
            0 -1 2 -3.8357742130756378e-02</internalNodes>
          <leafValues>
            4.4738015532493591e-01 -9.2757660150527954e-01</leafValues></_>
        <_>
          <internalNodes>
            0 -1 16 -2.4693198502063751e-03</internalNodes>
          <leafValues>
            6.0174834728240967e-01 -7.4804902076721191e-01</leafValues></_></weakClassifiers></_>
    <!-- stage 5 -->
    <_>
      <maxWeakCount>4</maxWeakCount>
      <stageThreshold>-1.8260439634323120e+00</stageThreshold>
      <weakClassifiers>
        <_>
          <internalNodes>
            0 -1 1 -5.5197938345372677e-03</internalNodes>
          <leafValues>
            6.2879997491836548e-01 -8.8753622770309448e-01</leafValues></_>
        <_>
          <internalNodes>
            0 -1 19 1.1224698275327682e-02</internalNodes>
          <leafValues>
            -7.1454572677612305e-01 7.4704116582870483e-01</leafValues></_>
        <_>
          <internalNodes>
            0 -1 22 -8.6226481944322586e-03</internalNodes>
          <leafValues>
            7.0946741104125977e-01 -6.2679743766784668e-01</leafValues></_>
        <_>
          <internalNodes>
            0 -1 12 -3.1379277061205357e-06</internalNodes>
          <leafValues>
            -1. 4.0283542871475220e-01</leafValues></_></weakClassifiers></_>
    <!-- stage 6 -->
    <_>
      <maxWeakCount>5</maxWeakCount>
      <stageThreshold>-1.7652434110641479e+00</stageThreshold>
      <weakClassifiers>
        <_>
          <internalNodes>
            0 -1 3 -1.2596037238836288e-02</internalNodes>
          <leafValues>
            7.2727274894714355e-01 -8.6949926614761353e-01</leafValues></_>
        <_>
          <internalNodes>
            0 -1 21 4.8984028398990631e-03</internalNodes>
          <leafValues>
            -7.5553488731384277e-01 7.8000128269195557e-01</leafValues></_>
        <_>
          <internalNodes>
            0 -1 5 7.4531240388751030e-03</internalNodes>
          <leafValues>
            -8.8342028856277466e-01 5.1823413372039795e-01</leafValues></_>
        <_>
          <internalNodes>
            0 -1 12 3.1198510441754479e-06</internalNodes>
          <leafValues>
            3.8882789015769958e-01 -1.</leafValues></_>
        <_>
          <internalNodes>
            0 -1 13 6.2612098190584220e-06</internalNodes>
          <leafValues>
            3.5438305139541626e-01 -9.2808270454406738e-01</leafValues></_></weakClassifiers></_></stages>
  <features>
    <_>
      <rects>
        <_>
          8 7 27 26 -1.</_>
        <_>
          17 7 9 26 3.</_></rects>
      <tilted>0</tilted></_>
    <_>
      <rects>
        <_>
          20 15 4 9 -1.</_>
        <_>
          22 15 2 9 2.</_></rects>
      <tilted>0</tilted></_>
    <_>
      <rects>
        <_>
          20 22 39 9 -1.</_>
        <_>
          33 25 13 3 9.</_></rects>
      <tilted>0</tilted></_>
    <_>
      <rects>
        <_>
          24 23 13 4 -1.</_>
        <_>
          24 23 13 2 2.</_></rects>
      <tilted>1</tilted></_>
    <_>
      <rects>
        <_>
          32 0 8 9 -1.</_>
        <_>
          32 0 4 9 2.</_></rects>
      <tilted>1</tilted></_>
    <_>
      <rects>
        <_>
          32 12 11 12 -1.</_>
        <_>
          32 15 11 6 2.</_></rects>
      <tilted>0</tilted></_>
    <_>
      <rects>
        <_>
          32 18 4 5 -1.</_>
        <_>
          34 18 2 5 2.</_></rects>
      <tilted>0</tilted></_>
    <_>
      <rects>
        <_>
          34 19 3 1 -1.</_>
        <_>
          35 19 1 1 3.</_></rects>
      <tilted>0</tilted></_>
    <_>
      <rects>
        <_>
          34 22 8 10 -1.</_>
        <_>
          34 22 8 5 2.</_></rects>
      <tilted>1</tilted></_>
    <_>
      <rects>
        <_>
          35 19 6 3 -1.</_>
        <_>
          37 19 2 3 3.</_></rects>
      <tilted>0</tilted></_>
    <_>
      <rects>
        <_>
          35 20 6 1 -1.</_>
        <_>
          37 20 2 1 3.</_></rects>
      <tilted>0</tilted></_>
    <_>
      <rects>
        <_>
          39 19 3 1 -1.</_>
        <_>
          40 19 1 1 3.</_></rects>
      <tilted>0</tilted></_>
    <_>
      <rects>
        <_>
          40 19 1 2 -1.</_>
        <_>
          40 20 1 1 2.</_></rects>
      <tilted>0</tilted></_>
    <_>
      <rects>
        <_>
          40 24 2 2 -1.</_>
        <_>
          40 24 2 1 2.</_></rects>
      <tilted>1</tilted></_>
    <_>
      <rects>
        <_>
          43 17 1 6 -1.</_>
        <_>
          43 19 1 2 3.</_></rects>
      <tilted>0</tilted></_>
    <_>
      <rects>
        <_>
          45 0 17 4 -1.</_>
        <_>
          45 0 17 2 2.</_></rects>
      <tilted>1</tilted></_>
    <_>
      <rects>
        <_>
          45 16 4 8 -1.</_>
        <_>
          47 16 2 8 2.</_></rects>
      <tilted>0</tilted></_>
    <_>
      <rects>
        <_>
          45 19 3 1 -1.</_>
        <_>
          46 19 1 1 3.</_></rects>
      <tilted>0</tilted></_>
    <_>
      <rects>
        <_>
          47 17 3 7 -1.</_>
        <_>
          48 17 1 7 3.</_></rects>
      <tilted>0</tilted></_>
    <_>
      <rects>
        <_>
          48 0 13 4 -1.</_>
        <_>
          48 0 13 2 2.</_></rects>
      <tilted>1</tilted></_>
    <_>
      <rects>
        <_>
          52 2 1 18 -1.</_>
        <_>
          46 8 1 6 3.</_></rects>
      <tilted>1</tilted></_>
    <_>
      <rects>
        <_>
          56 15 4 10 -1.</_>
        <_>
          58 15 2 10 2.</_></rects>
      <tilted>0</tilted></_>
    <_>
      <rects>
        <_>
          57 22 4 14 -1.</_>
        <_>
          57 22 2 14 2.</_></rects>
      <tilted>1</tilted></_>
    <_>
      <rects>
        <_>
          57 23 4 13 -1.</_>
        <_>
          57 23 2 13 2.</_></rects>
      <tilted>1</tilted></_>
    <_>
      <rects>
        <_>
          58 21 4 15 -1.</_>
        <_>
          58 21 2 15 2.</_></rects>
      <tilted>1</tilted></_></features></cascade>
</opencv_storage>
