<?xml version="1.0"?>
<opencv_storage>
<stage6>
  <maxWeakCount>5</maxWeakCount>
  <stageThreshold>-1.7652434110641479e+00</stageThreshold>
  <weakClassifiers>
    <_>
      <internalNodes>
        0 -1 3710388 -1.2596037238836288e-02</internalNodes>
      <leafValues>
        7.2727274894714355e-01 -8.6949926614761353e-01</leafValues></_>
    <_>
      <internalNodes>
        0 -1 6916148 4.8984028398990631e-03</internalNodes>
      <leafValues>
        -7.5553488731384277e-01 7.8000128269195557e-01</leafValues></_>
    <_>
      <internalNodes>
        0 -1 4673257 7.4531240388751030e-03</internalNodes>
      <leafValues>
        -8.8342028856277466e-01 5.1823413372039795e-01</leafValues></_>
    <_>
      <internalNodes>
        0 -1 5569896 3.1198510441754479e-06</internalNodes>
      <leafValues>
        3.8882789015769958e-01 -1.</leafValues></_>
    <_>
      <internalNodes>
        0 -1 5581039 6.2612098190584220e-06</internalNodes>
      <leafValues>
        3.5438305139541626e-01 -9.2808270454406738e-01</leafValues></_></weakClassifiers></stage6>
</opencv_storage>
